digraph Tree {
node [shape=box, style="filled", color="black", fontname="helvetica"] ;
edge [fontname="helvetica"] ;
0 [label="duration <= 0.107\ngini = 0.199\nsamples = 27595\nvalue = [24499, 3096]\nclass = no", fillcolor="#e89152"] ;
1 [label="euribor3m <= 0.131\ngini = 0.132\nsamples = 24627\nvalue = [22873, 1754]\nclass = no", fillcolor="#e78b48"] ;
0 -> 1 [labeldistance=2.5, labelangle=45, headlabel="True"] ;
2 [label="duration <= 0.033\ngini = 0.487\nsamples = 2515\nvalue = [1463, 1052]\nclass = no", fillcolor="#f8dcc7"] ;
1 -> 2 ;
3 [label="poutcome <= 1.5\ngini = 0.252\nsamples = 974\nvalue = [830, 144]\nclass = no", fillcolor="#ea975b"] ;
2 -> 3 ;
4 [label="duration <= 0.025\ngini = 0.192\nsamples = 816\nvalue = [728, 88]\nclass = no", fillcolor="#e89051"] ;
3 -> 4 ;
5 [label="duration <= 0.016\ngini = 0.107\nsamples = 549\nvalue = [518, 31]\nclass = no", fillcolor="#e78945"] ;
4 -> 5 ;
6 [label="campaign <= 0.027\ngini = 0.009\nsamples = 213\nvalue = [212, 1]\nclass = no", fillcolor="#e5823a"] ;
5 -> 6 ;
7 [label="gini = 0.0\nsamples = 182\nvalue = [182, 0]\nclass = no", fillcolor="#e58139"] ;
6 -> 7 ;
8 [label="age <= 0.154\ngini = 0.062\nsamples = 31\nvalue = [30, 1]\nclass = no", fillcolor="#e68540"] ;
6 -> 8 ;
9 [label="day_of_week <= 3.5\ngini = 0.32\nsamples = 5\nvalue = [4, 1]\nclass = no", fillcolor="#eca06a"] ;
8 -> 9 ;
10 [label="gini = 0.0\nsamples = 4\nvalue = [4, 0]\nclass = no", fillcolor="#e58139"] ;
9 -> 10 ;
11 [label="gini = 0.0\nsamples = 1\nvalue = [0, 1]\nclass = yes", fillcolor="#399de5"] ;
9 -> 11 ;
12 [label="gini = 0.0\nsamples = 26\nvalue = [26, 0]\nclass = no", fillcolor="#e58139"] ;
8 -> 12 ;
13 [label="euribor3m <= 0.0\ngini = 0.163\nsamples = 336\nvalue = [306, 30]\nclass = no", fillcolor="#e88d4c"] ;
5 -> 13 ;
14 [label="day_of_week <= 1.5\ngini = 0.444\nsamples = 3\nvalue = [1, 2]\nclass = yes", fillcolor="#9ccef2"] ;
13 -> 14 ;
15 [label="gini = 0.0\nsamples = 1\nvalue = [1, 0]\nclass = no", fillcolor="#e58139"] ;
14 -> 15 ;
16 [label="gini = 0.0\nsamples = 2\nvalue = [0, 2]\nclass = yes", fillcolor="#399de5"] ;
14 -> 16 ;
17 [label="cons.conf.idx <= 0.839\ngini = 0.154\nsamples = 333\nvalue = [305, 28]\nclass = no", fillcolor="#e78d4b"] ;
13 -> 17 ;
18 [label="duration <= 0.016\ngini = 0.101\nsamples = 207\nvalue = [196, 11]\nclass = no", fillcolor="#e68844"] ;
17 -> 18 ;
19 [label="age <= 0.117\ngini = 0.444\nsamples = 6\nvalue = [4, 2]\nclass = no", fillcolor="#f2c09c"] ;
18 -> 19 ;
20 [label="gini = 0.0\nsamples = 3\nvalue = [3, 0]\nclass = no", fillcolor="#e58139"] ;
19 -> 20 ;
21 [label="age <= 0.228\ngini = 0.444\nsamples = 3\nvalue = [1, 2]\nclass = yes", fillcolor="#9ccef2"] ;
19 -> 21 ;
22 [label="gini = 0.0\nsamples = 2\nvalue = [0, 2]\nclass = yes", fillcolor="#399de5"] ;
21 -> 22 ;
23 [label="gini = 0.0\nsamples = 1\nvalue = [1, 0]\nclass = no", fillcolor="#e58139"] ;
21 -> 23 ;
24 [label="cons.conf.idx <= 0.54\ngini = 0.086\nsamples = 201\nvalue = [192, 9]\nclass = no", fillcolor="#e68742"] ;
18 -> 24 ;
25 [label="education <= 6.5\ngini = 0.188\nsamples = 57\nvalue = [51, 6]\nclass = no", fillcolor="#e89050"] ;
24 -> 25 ;
26 [label="day_of_week <= 1.5\ngini = 0.14\nsamples = 53\nvalue = [49, 4]\nclass = no", fillcolor="#e78b49"] ;
25 -> 26 ;
27 [label="gini = 0.0\nsamples = 28\nvalue = [28, 0]\nclass = no", fillcolor="#e58139"] ;
26 -> 27 ;
28 [label="marital <= 0.5\ngini = 0.269\nsamples = 25\nvalue = [21, 4]\nclass = no", fillcolor="#ea995f"] ;
26 -> 28 ;
29 [label="gini = 0.0\nsamples = 1\nvalue = [0, 1]\nclass = yes", fillcolor="#399de5"] ;
28 -> 29 ;
30 [label="duration <= 0.02\ngini = 0.219\nsamples = 24\nvalue = [21, 3]\nclass = no", fillcolor="#e99355"] ;
28 -> 30 ;
31 [label="poutcome <= 0.5\ngini = 0.48\nsamples = 5\nvalue = [3, 2]\nclass = no", fillcolor="#f6d5bd"] ;
30 -> 31 ;
32 [label="gini = 0.0\nsamples = 3\nvalue = [3, 0]\nclass = no", fillcolor="#e58139"] ;
31 -> 32 ;
33 [label="gini = 0.0\nsamples = 2\nvalue = [0, 2]\nclass = yes", fillcolor="#399de5"] ;
31 -> 33 ;
34 [label="cons.conf.idx <= 0.027\ngini = 0.1\nsamples = 19\nvalue = [18, 1]\nclass = no", fillcolor="#e68844"] ;
30 -> 34 ;
35 [label="euribor3m <= 0.092\ngini = 0.444\nsamples = 3\nvalue = [2, 1]\nclass = no", fillcolor="#f2c09c"] ;
34 -> 35 ;
36 [label="gini = 0.0\nsamples = 1\nvalue = [0, 1]\nclass = yes", fillcolor="#399de5"] ;
35 -> 36 ;
37 [label="gini = 0.0\nsamples = 2\nvalue = [2, 0]\nclass = no", fillcolor="#e58139"] ;
35 -> 37 ;
38 [label="gini = 0.0\nsamples = 16\nvalue = [16, 0]\nclass = no", fillcolor="#e58139"] ;
34 -> 38 ;
39 [label="age <= 0.29\ngini = 0.5\nsamples = 4\nvalue = [2, 2]\nclass = no", fillcolor="#ffffff"] ;
25 -> 39 ;
40 [label="gini = 0.0\nsamples = 2\nvalue = [2, 0]\nclass = no", fillcolor="#e58139"] ;
39 -> 40 ;
41 [label="gini = 0.0\nsamples = 2\nvalue = [0, 2]\nclass = yes", fillcolor="#399de5"] ;
39 -> 41 ;
42 [label="campaign <= 0.082\ngini = 0.041\nsamples = 144\nvalue = [141, 3]\nclass = no", fillcolor="#e6843d"] ;
24 -> 42 ;
43 [label="education <= 5.5\ngini = 0.029\nsamples = 138\nvalue = [136, 2]\nclass = no", fillcolor="#e5833c"] ;
42 -> 43 ;
44 [label="education <= 4.0\ngini = 0.068\nsamples = 57\nvalue = [55, 2]\nclass = no", fillcolor="#e68640"] ;
43 -> 44 ;
45 [label="gini = 0.0\nsamples = 43\nvalue = [43, 0]\nclass = no", fillcolor="#e58139"] ;
44 -> 45 ;
46 [label="day_of_week <= 0.5\ngini = 0.245\nsamples = 14\nvalue = [12, 2]\nclass = no", fillcolor="#e9965a"] ;
44 -> 46 ;
47 [label="marital <= 1.5\ngini = 0.5\nsamples = 2\nvalue = [1, 1]\nclass = no", fillcolor="#ffffff"] ;
46 -> 47 ;
48 [label="gini = 0.0\nsamples = 1\nvalue = [0, 1]\nclass = yes", fillcolor="#399de5"] ;
47 -> 48 ;
49 [label="gini = 0.0\nsamples = 1\nvalue = [1, 0]\nclass = no", fillcolor="#e58139"] ;
47 -> 49 ;
50 [label="age <= 0.451\ngini = 0.153\nsamples = 12\nvalue = [11, 1]\nclass = no", fillcolor="#e78c4b"] ;
46 -> 50 ;
51 [label="gini = 0.0\nsamples = 9\nvalue = [9, 0]\nclass = no", fillcolor="#e58139"] ;
50 -> 51 ;
52 [label="cons.conf.idx <= 0.778\ngini = 0.444\nsamples = 3\nvalue = [2, 1]\nclass = no", fillcolor="#f2c09c"] ;
50 -> 52 ;
53 [label="gini = 0.0\nsamples = 2\nvalue = [2, 0]\nclass = no", fillcolor="#e58139"] ;
52 -> 53 ;
54 [label="gini = 0.0\nsamples = 1\nvalue = [0, 1]\nclass = yes", fillcolor="#399de5"] ;
52 -> 54 ;
55 [label="gini = 0.0\nsamples = 81\nvalue = [81, 0]\nclass = no", fillcolor="#e58139"] ;
43 -> 55 ;
56 [label="euribor3m <= 0.059\ngini = 0.278\nsamples = 6\nvalue = [5, 1]\nclass = no", fillcolor="#ea9a61"] ;
42 -> 56 ;
57 [label="gini = 0.0\nsamples = 5\nvalue = [5, 0]\nclass = no", fillcolor="#e58139"] ;
56 -> 57 ;
58 [label="gini = 0.0\nsamples = 1\nvalue = [0, 1]\nclass = yes", fillcolor="#399de5"] ;
56 -> 58 ;
59 [label="euribor3m <= 0.033\ngini = 0.233\nsamples = 126\nvalue = [109, 17]\nclass = no", fillcolor="#e99558"] ;
17 -> 59 ;
60 [label="euribor3m <= 0.031\ngini = 0.267\nsamples = 107\nvalue = [90, 17]\nclass = no", fillcolor="#ea995e"] ;
59 -> 60 ;
61 [label="duration <= 0.019\ngini = 0.239\nsamples = 101\nvalue = [87, 14]\nclass = no", fillcolor="#e99559"] ;
60 -> 61 ;
62 [label="duration <= 0.016\ngini = 0.127\nsamples = 44\nvalue = [41, 3]\nclass = no", fillcolor="#e78a47"] ;
61 -> 62 ;
63 [label="day_of_week <= 2.5\ngini = 0.5\nsamples = 2\nvalue = [1, 1]\nclass = no", fillcolor="#ffffff"] ;
62 -> 63 ;
64 [label="gini = 0.0\nsamples = 1\nvalue = [0, 1]\nclass = yes", fillcolor="#399de5"] ;
63 -> 64 ;
65 [label="gini = 0.0\nsamples = 1\nvalue = [1, 0]\nclass = no", fillcolor="#e58139"] ;
63 -> 65 ;
66 [label="job <= 5.5\ngini = 0.091\nsamples = 42\nvalue = [40, 2]\nclass = no", fillcolor="#e68743"] ;
62 -> 66 ;
67 [label="gini = 0.0\nsamples = 29\nvalue = [29, 0]\nclass = no", fillcolor="#e58139"] ;
66 -> 67 ;
68 [label="job <= 6.5\ngini = 0.26\nsamples = 13\nvalue = [11, 2]\nclass = no", fillcolor="#ea985d"] ;
66 -> 68 ;
69 [label="gini = 0.0\nsamples = 1\nvalue = [0, 1]\nclass = yes", fillcolor="#399de5"] ;
68 -> 69 ;
70 [label="campaign <= 0.009\ngini = 0.153\nsamples = 12\nvalue = [11, 1]\nclass = no", fillcolor="#e78c4b"] ;
68 -> 70 ;
71 [label="gini = 0.0\nsamples = 9\nvalue = [9, 0]\nclass = no", fillcolor="#e58139"] ;
70 -> 71 ;
72 [label="age <= 0.167\ngini = 0.444\nsamples = 3\nvalue = [2, 1]\nclass = no", fillcolor="#f2c09c"] ;
70 -> 72 ;
73 [label="gini = 0.0\nsamples = 2\nvalue = [2, 0]\nclass = no", fillcolor="#e58139"] ;
72 -> 73 ;
74 [label="gini = 0.0\nsamples = 1\nvalue = [0, 1]\nclass = yes", fillcolor="#399de5"] ;
72 -> 74 ;
75 [label="euribor3m <= 0.024\ngini = 0.311\nsamples = 57\nvalue = [46, 11]\nclass = no", fillcolor="#eb9f68"] ;
61 -> 75 ;
76 [label="job <= 4.5\ngini = 0.381\nsamples = 39\nvalue = [29, 10]\nclass = no", fillcolor="#eeac7d"] ;
75 -> 76 ;
77 [label="age <= 0.105\ngini = 0.269\nsamples = 25\nvalue = [21, 4]\nclass = no", fillcolor="#ea995f"] ;
76 -> 77 ;
78 [label="duration <= 0.024\ngini = 0.444\nsamples = 3\nvalue = [1, 2]\nclass = yes", fillcolor="#9ccef2"] ;
77 -> 78 ;
79 [label="gini = 0.0\nsamples = 2\nvalue = [0, 2]\nclass = yes", fillcolor="#399de5"] ;
78 -> 79 ;
80 [label="gini = 0.0\nsamples = 1\nvalue = [1, 0]\nclass = no", fillcolor="#e58139"] ;
78 -> 80 ;
81 [label="duration <= 0.024\ngini = 0.165\nsamples = 22\nvalue = [20, 2]\nclass = no", fillcolor="#e88e4d"] ;
77 -> 81 ;
82 [label="age <= 0.154\ngini = 0.091\nsamples = 21\nvalue = [20, 1]\nclass = no", fillcolor="#e68743"] ;
81 -> 82 ;
83 [label="euribor3m <= 0.022\ngini = 0.375\nsamples = 4\nvalue = [3, 1]\nclass = no", fillcolor="#eeab7b"] ;
82 -> 83 ;
84 [label="gini = 0.0\nsamples = 3\nvalue = [3, 0]\nclass = no", fillcolor="#e58139"] ;
83 -> 84 ;
85 [label="gini = 0.0\nsamples = 1\nvalue = [0, 1]\nclass = yes", fillcolor="#399de5"] ;
83 -> 85 ;
86 [label="gini = 0.0\nsamples = 17\nvalue = [17, 0]\nclass = no", fillcolor="#e58139"] ;
82 -> 86 ;
87 [label="gini = 0.0\nsamples = 1\nvalue = [0, 1]\nclass = yes", fillcolor="#399de5"] ;
81 -> 87 ;
88 [label="duration <= 0.021\ngini = 0.49\nsamples = 14\nvalue = [8, 6]\nclass = no", fillcolor="#f8e0ce"] ;
76 -> 88 ;
89 [label="day_of_week <= 0.5\ngini = 0.375\nsamples = 4\nvalue = [1, 3]\nclass = yes", fillcolor="#7bbeee"] ;
88 -> 89 ;
90 [label="gini = 0.0\nsamples = 1\nvalue = [1, 0]\nclass = no", fillcolor="#e58139"] ;
89 -> 90 ;
91 [label="gini = 0.0\nsamples = 3\nvalue = [0, 3]\nclass = yes", fillcolor="#399de5"] ;
89 -> 91 ;
92 [label="education <= 2.5\ngini = 0.42\nsamples = 10\nvalue = [7, 3]\nclass = no", fillcolor="#f0b78e"] ;
88 -> 92 ;
93 [label="gini = 0.0\nsamples = 1\nvalue = [0, 1]\nclass = yes", fillcolor="#399de5"] ;
92 -> 93 ;
94 [label="job <= 7.5\ngini = 0.346\nsamples = 9\nvalue = [7, 2]\nclass = no", fillcolor="#eca572"] ;
92 -> 94 ;
95 [label="gini = 0.0\nsamples = 4\nvalue = [4, 0]\nclass = no", fillcolor="#e58139"] ;
94 -> 95 ;
96 [label="euribor3m <= 0.018\ngini = 0.48\nsamples = 5\nvalue = [3, 2]\nclass = no", fillcolor="#f6d5bd"] ;
94 -> 96 ;
97 [label="gini = 0.0\nsamples = 2\nvalue = [2, 0]\nclass = no", fillcolor="#e58139"] ;
96 -> 97 ;
98 [label="duration <= 0.021\ngini = 0.444\nsamples = 3\nvalue = [1, 2]\nclass = yes", fillcolor="#9ccef2"] ;
96 -> 98 ;
99 [label="gini = 0.0\nsamples = 1\nvalue = [1, 0]\nclass = no", fillcolor="#e58139"] ;
98 -> 99 ;
100 [label="gini = 0.0\nsamples = 2\nvalue = [0, 2]\nclass = yes", fillcolor="#399de5"] ;
98 -> 100 ;
101 [label="day_of_week <= 1.5\ngini = 0.105\nsamples = 18\nvalue = [17, 1]\nclass = no", fillcolor="#e78845"] ;
75 -> 101 ;
102 [label="euribor3m <= 0.024\ngini = 0.32\nsamples = 5\nvalue = [4, 1]\nclass = no", fillcolor="#eca06a"] ;
101 -> 102 ;
103 [label="gini = 0.0\nsamples = 3\nvalue = [3, 0]\nclass = no", fillcolor="#e58139"] ;
102 -> 103 ;
104 [label="education <= 4.0\ngini = 0.5\nsamples = 2\nvalue = [1, 1]\nclass = no", fillcolor="#ffffff"] ;
102 -> 104 ;
105 [label="gini = 0.0\nsamples = 1\nvalue = [1, 0]\nclass = no", fillcolor="#e58139"] ;
104 -> 105 ;
106 [label="gini = 0.0\nsamples = 1\nvalue = [0, 1]\nclass = yes", fillcolor="#399de5"] ;
104 -> 106 ;
107 [label="gini = 0.0\nsamples = 13\nvalue = [13, 0]\nclass = no", fillcolor="#e58139"] ;
101 -> 107 ;
108 [label="age <= 0.401\ngini = 0.5\nsamples = 6\nvalue = [3, 3]\nclass = no", fillcolor="#ffffff"] ;
60 -> 108 ;
109 [label="campaign <= 0.045\ngini = 0.375\nsamples = 4\nvalue = [1, 3]\nclass = yes", fillcolor="#7bbeee"] ;
108 -> 109 ;
110 [label="gini = 0.0\nsamples = 3\nvalue = [0, 3]\nclass = yes", fillcolor="#399de5"] ;
109 -> 110 ;
111 [label="gini = 0.0\nsamples = 1\nvalue = [1, 0]\nclass = no", fillcolor="#e58139"] ;
109 -> 111 ;
112 [label="gini = 0.0\nsamples = 2\nvalue = [2, 0]\nclass = no", fillcolor="#e58139"] ;
108 -> 112 ;
113 [label="gini = 0.0\nsamples = 19\nvalue = [19, 0]\nclass = no", fillcolor="#e58139"] ;
59 -> 113 ;
114 [label="cons.conf.idx <= 0.613\ngini = 0.336\nsamples = 267\nvalue = [210, 57]\nclass = no", fillcolor="#eca36f"] ;
4 -> 114 ;
115 [label="marital <= 0.5\ngini = 0.098\nsamples = 77\nvalue = [73, 4]\nclass = no", fillcolor="#e68844"] ;
114 -> 115 ;
116 [label="duration <= 0.026\ngini = 0.375\nsamples = 8\nvalue = [6, 2]\nclass = no", fillcolor="#eeab7b"] ;
115 -> 116 ;
117 [label="gini = 0.0\nsamples = 1\nvalue = [0, 1]\nclass = yes", fillcolor="#399de5"] ;
116 -> 117 ;
118 [label="age <= 0.796\ngini = 0.245\nsamples = 7\nvalue = [6, 1]\nclass = no", fillcolor="#e9965a"] ;
116 -> 118 ;
119 [label="gini = 0.0\nsamples = 6\nvalue = [6, 0]\nclass = no", fillcolor="#e58139"] ;
118 -> 119 ;
120 [label="gini = 0.0\nsamples = 1\nvalue = [0, 1]\nclass = yes", fillcolor="#399de5"] ;
118 -> 120 ;
121 [label="job <= 7.5\ngini = 0.056\nsamples = 69\nvalue = [67, 2]\nclass = no", fillcolor="#e6853f"] ;
115 -> 121 ;
122 [label="gini = 0.0\nsamples = 53\nvalue = [53, 0]\nclass = no", fillcolor="#e58139"] ;
121 -> 122 ;
123 [label="day_of_week <= 3.5\ngini = 0.219\nsamples = 16\nvalue = [14, 2]\nclass = no", fillcolor="#e99355"] ;
121 -> 123 ;
124 [label="age <= 0.352\ngini = 0.133\nsamples = 14\nvalue = [13, 1]\nclass = no", fillcolor="#e78b48"] ;
123 -> 124 ;
125 [label="gini = 0.0\nsamples = 12\nvalue = [12, 0]\nclass = no", fillcolor="#e58139"] ;
124 -> 125 ;
126 [label="age <= 0.475\ngini = 0.5\nsamples = 2\nvalue = [1, 1]\nclass = no", fillcolor="#ffffff"] ;
124 -> 126 ;
127 [label="gini = 0.0\nsamples = 1\nvalue = [0, 1]\nclass = yes", fillcolor="#399de5"] ;
126 -> 127 ;
128 [label="gini = 0.0\nsamples = 1\nvalue = [1, 0]\nclass = no", fillcolor="#e58139"] ;
126 -> 128 ;
129 [label="job <= 8.5\ngini = 0.5\nsamples = 2\nvalue = [1, 1]\nclass = no", fillcolor="#ffffff"] ;
123 -> 129 ;
130 [label="gini = 0.0\nsamples = 1\nvalue = [0, 1]\nclass = yes", fillcolor="#399de5"] ;
129 -> 130 ;
131 [label="gini = 0.0\nsamples = 1\nvalue = [1, 0]\nclass = no", fillcolor="#e58139"] ;
129 -> 131 ;
132 [label="age <= 0.068\ngini = 0.402\nsamples = 190\nvalue = [137, 53]\nclass = no", fillcolor="#efb286"] ;
114 -> 132 ;
133 [label="gini = 0.0\nsamples = 4\nvalue = [0, 4]\nclass = yes", fillcolor="#399de5"] ;
132 -> 133 ;
134 [label="marital <= 0.5\ngini = 0.388\nsamples = 186\nvalue = [137, 49]\nclass = no", fillcolor="#eeae80"] ;
132 -> 134 ;
135 [label="euribor3m <= 0.018\ngini = 0.191\nsamples = 28\nvalue = [25, 3]\nclass = no", fillcolor="#e89051"] ;
134 -> 135 ;
136 [label="duration <= 0.028\ngini = 0.444\nsamples = 6\nvalue = [4, 2]\nclass = no", fillcolor="#f2c09c"] ;
135 -> 136 ;
137 [label="job <= 3.5\ngini = 0.444\nsamples = 3\nvalue = [1, 2]\nclass = yes", fillcolor="#9ccef2"] ;
136 -> 137 ;
138 [label="gini = 0.0\nsamples = 2\nvalue = [0, 2]\nclass = yes", fillcolor="#399de5"] ;
137 -> 138 ;
139 [label="gini = 0.0\nsamples = 1\nvalue = [1, 0]\nclass = no", fillcolor="#e58139"] ;
137 -> 139 ;
140 [label="gini = 0.0\nsamples = 3\nvalue = [3, 0]\nclass = no", fillcolor="#e58139"] ;
136 -> 140 ;
141 [label="age <= 0.617\ngini = 0.087\nsamples = 22\nvalue = [21, 1]\nclass = no", fillcolor="#e68742"] ;
135 -> 141 ;
142 [label="gini = 0.0\nsamples = 17\nvalue = [17, 0]\nclass = no", fillcolor="#e58139"] ;
141 -> 142 ;
143 [label="education <= 2.5\ngini = 0.32\nsamples = 5\nvalue = [4, 1]\nclass = no", fillcolor="#eca06a"] ;
141 -> 143 ;
144 [label="gini = 0.0\nsamples = 4\nvalue = [4, 0]\nclass = no", fillcolor="#e58139"] ;
143 -> 144 ;
145 [label="gini = 0.0\nsamples = 1\nvalue = [0, 1]\nclass = yes", fillcolor="#399de5"] ;
143 -> 145 ;
146 [label="cons.conf.idx <= 0.939\ngini = 0.413\nsamples = 158\nvalue = [112, 46]\nclass = no", fillcolor="#f0b58a"] ;
134 -> 146 ;
147 [label="day_of_week <= 2.5\ngini = 0.382\nsamples = 132\nvalue = [98, 34]\nclass = no", fillcolor="#eead7e"] ;
146 -> 147 ;
148 [label="job <= 10.5\ngini = 0.32\nsamples = 90\nvalue = [72, 18]\nclass = no", fillcolor="#eca06a"] ;
147 -> 148 ;
149 [label="campaign <= 0.027\ngini = 0.309\nsamples = 89\nvalue = [72, 17]\nclass = no", fillcolor="#eb9f68"] ;
148 -> 149 ;
150 [label="euribor3m <= 0.019\ngini = 0.347\nsamples = 76\nvalue = [59, 17]\nclass = no", fillcolor="#eca572"] ;
149 -> 150 ;
151 [label="job <= 4.5\ngini = 0.444\nsamples = 30\nvalue = [20, 10]\nclass = no", fillcolor="#f2c09c"] ;
150 -> 151 ;
152 [label="age <= 0.142\ngini = 0.499\nsamples = 19\nvalue = [10, 9]\nclass = no", fillcolor="#fcf2eb"] ;
151 -> 152 ;
153 [label="gini = 0.0\nsamples = 4\nvalue = [4, 0]\nclass = no", fillcolor="#e58139"] ;
152 -> 153 ;
154 [label="duration <= 0.028\ngini = 0.48\nsamples = 15\nvalue = [6, 9]\nclass = yes", fillcolor="#bddef6"] ;
152 -> 154 ;
155 [label="job <= 2.5\ngini = 0.278\nsamples = 6\nvalue = [1, 5]\nclass = yes", fillcolor="#61b1ea"] ;
154 -> 155 ;
156 [label="gini = 0.0\nsamples = 5\nvalue = [0, 5]\nclass = yes", fillcolor="#399de5"] ;
155 -> 156 ;
157 [label="gini = 0.0\nsamples = 1\nvalue = [1, 0]\nclass = no", fillcolor="#e58139"] ;
155 -> 157 ;
158 [label="age <= 0.377\ngini = 0.494\nsamples = 9\nvalue = [5, 4]\nclass = no", fillcolor="#fae6d7"] ;
154 -> 158 ;
159 [label="job <= 3.5\ngini = 0.278\nsamples = 6\nvalue = [5, 1]\nclass = no", fillcolor="#ea9a61"] ;
158 -> 159 ;
160 [label="gini = 0.0\nsamples = 4\nvalue = [4, 0]\nclass = no", fillcolor="#e58139"] ;
159 -> 160 ;
161 [label="day_of_week <= 1.5\ngini = 0.5\nsamples = 2\nvalue = [1, 1]\nclass = no", fillcolor="#ffffff"] ;
159 -> 161 ;
162 [label="gini = 0.0\nsamples = 1\nvalue = [1, 0]\nclass = no", fillcolor="#e58139"] ;
161 -> 162 ;
163 [label="gini = 0.0\nsamples = 1\nvalue = [0, 1]\nclass = yes", fillcolor="#399de5"] ;
161 -> 163 ;
164 [label="gini = 0.0\nsamples = 3\nvalue = [0, 3]\nclass = yes", fillcolor="#399de5"] ;
158 -> 164 ;
165 [label="duration <= 0.032\ngini = 0.165\nsamples = 11\nvalue = [10, 1]\nclass = no", fillcolor="#e88e4d"] ;
151 -> 165 ;
166 [label="gini = 0.0\nsamples = 10\nvalue = [10, 0]\nclass = no", fillcolor="#e58139"] ;
165 -> 166 ;
167 [label="gini = 0.0\nsamples = 1\nvalue = [0, 1]\nclass = yes", fillcolor="#399de5"] ;
165 -> 167 ;
168 [label="age <= 0.173\ngini = 0.258\nsamples = 46\nvalue = [39, 7]\nclass = no", fillcolor="#ea985d"] ;
150 -> 168 ;
169 [label="campaign <= 0.009\ngini = 0.459\nsamples = 14\nvalue = [9, 5]\nclass = no", fillcolor="#f3c7a7"] ;
168 -> 169 ;
170 [label="age <= 0.142\ngini = 0.198\nsamples = 9\nvalue = [8, 1]\nclass = no", fillcolor="#e89152"] ;
169 -> 170 ;
171 [label="gini = 0.0\nsamples = 8\nvalue = [8, 0]\nclass = no", fillcolor="#e58139"] ;
170 -> 171 ;
172 [label="gini = 0.0\nsamples = 1\nvalue = [0, 1]\nclass = yes", fillcolor="#399de5"] ;
170 -> 172 ;
173 [label="euribor3m <= 0.052\ngini = 0.32\nsamples = 5\nvalue = [1, 4]\nclass = yes", fillcolor="#6ab6ec"] ;
169 -> 173 ;
174 [label="job <= 7.0\ngini = 0.5\nsamples = 2\nvalue = [1, 1]\nclass = no", fillcolor="#ffffff"] ;
173 -> 174 ;
175 [label="gini = 0.0\nsamples = 1\nvalue = [1, 0]\nclass = no", fillcolor="#e58139"] ;
174 -> 175 ;
176 [label="gini = 0.0\nsamples = 1\nvalue = [0, 1]\nclass = yes", fillcolor="#399de5"] ;
174 -> 176 ;
177 [label="gini = 0.0\nsamples = 3\nvalue = [0, 3]\nclass = yes", fillcolor="#399de5"] ;
173 -> 177 ;
178 [label="age <= 0.698\ngini = 0.117\nsamples = 32\nvalue = [30, 2]\nclass = no", fillcolor="#e78946"] ;
168 -> 178 ;
179 [label="euribor3m <= 0.098\ngini = 0.062\nsamples = 31\nvalue = [30, 1]\nclass = no", fillcolor="#e68540"] ;
178 -> 179 ;
180 [label="gini = 0.0\nsamples = 28\nvalue = [28, 0]\nclass = no", fillcolor="#e58139"] ;
179 -> 180 ;
181 [label="poutcome <= 0.5\ngini = 0.444\nsamples = 3\nvalue = [2, 1]\nclass = no", fillcolor="#f2c09c"] ;
179 -> 181 ;
182 [label="gini = 0.0\nsamples = 1\nvalue = [0, 1]\nclass = yes", fillcolor="#399de5"] ;
181 -> 182 ;
183 [label="gini = 0.0\nsamples = 2\nvalue = [2, 0]\nclass = no", fillcolor="#e58139"] ;
181 -> 183 ;
184 [label="gini = 0.0\nsamples = 1\nvalue = [0, 1]\nclass = yes", fillcolor="#399de5"] ;
178 -> 184 ;
185 [label="gini = 0.0\nsamples = 13\nvalue = [13, 0]\nclass = no", fillcolor="#e58139"] ;
149 -> 185 ;
186 [label="gini = 0.0\nsamples = 1\nvalue = [0, 1]\nclass = yes", fillcolor="#399de5"] ;
148 -> 186 ;
187 [label="age <= 0.099\ngini = 0.472\nsamples = 42\nvalue = [26, 16]\nclass = no", fillcolor="#f5cfb3"] ;
147 -> 187 ;
188 [label="gini = 0.0\nsamples = 2\nvalue = [0, 2]\nclass = yes", fillcolor="#399de5"] ;
187 -> 188 ;
189 [label="education <= 6.5\ngini = 0.455\nsamples = 40\nvalue = [26, 14]\nclass = no", fillcolor="#f3c5a4"] ;
187 -> 189 ;
190 [label="day_of_week <= 3.5\ngini = 0.432\nsamples = 38\nvalue = [26, 12]\nclass = no", fillcolor="#f1bb94"] ;
189 -> 190 ;
191 [label="euribor3m <= 0.057\ngini = 0.497\nsamples = 24\nvalue = [13, 11]\nclass = no", fillcolor="#fbece1"] ;
190 -> 191 ;
192 [label="euribor3m <= 0.019\ngini = 0.499\nsamples = 21\nvalue = [10, 11]\nclass = yes", fillcolor="#edf6fd"] ;
191 -> 192 ;
193 [label="age <= 0.364\ngini = 0.408\nsamples = 7\nvalue = [5, 2]\nclass = no", fillcolor="#efb388"] ;
192 -> 193 ;
194 [label="gini = 0.0\nsamples = 4\nvalue = [4, 0]\nclass = no", fillcolor="#e58139"] ;
193 -> 194 ;
195 [label="age <= 0.58\ngini = 0.444\nsamples = 3\nvalue = [1, 2]\nclass = yes", fillcolor="#9ccef2"] ;
193 -> 195 ;
196 [label="gini = 0.0\nsamples = 2\nvalue = [0, 2]\nclass = yes", fillcolor="#399de5"] ;
195 -> 196 ;
197 [label="gini = 0.0\nsamples = 1\nvalue = [1, 0]\nclass = no", fillcolor="#e58139"] ;
195 -> 197 ;
198 [label="duration <= 0.031\ngini = 0.459\nsamples = 14\nvalue = [5, 9]\nclass = yes", fillcolor="#a7d3f3"] ;
192 -> 198 ;
199 [label="job <= 3.0\ngini = 0.32\nsamples = 10\nvalue = [2, 8]\nclass = yes", fillcolor="#6ab6ec"] ;
198 -> 199 ;
200 [label="education <= 4.5\ngini = 0.48\nsamples = 5\nvalue = [2, 3]\nclass = yes", fillcolor="#bddef6"] ;
199 -> 200 ;
201 [label="euribor3m <= 0.054\ngini = 0.444\nsamples = 3\nvalue = [2, 1]\nclass = no", fillcolor="#f2c09c"] ;
200 -> 201 ;
202 [label="gini = 0.0\nsamples = 2\nvalue = [2, 0]\nclass = no", fillcolor="#e58139"] ;
201 -> 202 ;
203 [label="gini = 0.0\nsamples = 1\nvalue = [0, 1]\nclass = yes", fillcolor="#399de5"] ;
201 -> 203 ;
204 [label="gini = 0.0\nsamples = 2\nvalue = [0, 2]\nclass = yes", fillcolor="#399de5"] ;
200 -> 204 ;
205 [label="gini = 0.0\nsamples = 5\nvalue = [0, 5]\nclass = yes", fillcolor="#399de5"] ;
199 -> 205 ;
206 [label="euribor3m <= 0.041\ngini = 0.375\nsamples = 4\nvalue = [3, 1]\nclass = no", fillcolor="#eeab7b"] ;
198 -> 206 ;
207 [label="gini = 0.0\nsamples = 1\nvalue = [0, 1]\nclass = yes", fillcolor="#399de5"] ;
206 -> 207 ;
208 [label="gini = 0.0\nsamples = 3\nvalue = [3, 0]\nclass = no", fillcolor="#e58139"] ;
206 -> 208 ;
209 [label="gini = 0.0\nsamples = 3\nvalue = [3, 0]\nclass = no", fillcolor="#e58139"] ;
191 -> 209 ;
210 [label="marital <= 1.5\ngini = 0.133\nsamples = 14\nvalue = [13, 1]\nclass = no", fillcolor="#e78b48"] ;
190 -> 210 ;
211 [label="gini = 0.0\nsamples = 11\nvalue = [11, 0]\nclass = no", fillcolor="#e58139"] ;
210 -> 211 ;
212 [label="age <= 0.198\ngini = 0.444\nsamples = 3\nvalue = [2, 1]\nclass = no", fillcolor="#f2c09c"] ;
210 -> 212 ;
213 [label="gini = 0.0\nsamples = 2\nvalue = [2, 0]\nclass = no", fillcolor="#e58139"] ;
212 -> 213 ;
214 [label="gini = 0.0\nsamples = 1\nvalue = [0, 1]\nclass = yes", fillcolor="#399de5"] ;
212 -> 214 ;
215 [label="gini = 0.0\nsamples = 2\nvalue = [0, 2]\nclass = yes", fillcolor="#399de5"] ;
189 -> 215 ;
216 [label="duration <= 0.03\ngini = 0.497\nsamples = 26\nvalue = [14, 12]\nclass = no", fillcolor="#fbede3"] ;
146 -> 216 ;
217 [label="age <= 0.29\ngini = 0.49\nsamples = 21\nvalue = [9, 12]\nclass = yes", fillcolor="#cee6f8"] ;
216 -> 217 ;
218 [label="job <= 0.5\ngini = 0.459\nsamples = 14\nvalue = [9, 5]\nclass = no", fillcolor="#f3c7a7"] ;
217 -> 218 ;
219 [label="duration <= 0.027\ngini = 0.219\nsamples = 8\nvalue = [7, 1]\nclass = no", fillcolor="#e99355"] ;
218 -> 219 ;
220 [label="gini = 0.0\nsamples = 6\nvalue = [6, 0]\nclass = no", fillcolor="#e58139"] ;
219 -> 220 ;
221 [label="euribor3m <= 0.024\ngini = 0.5\nsamples = 2\nvalue = [1, 1]\nclass = no", fillcolor="#ffffff"] ;
219 -> 221 ;
222 [label="gini = 0.0\nsamples = 1\nvalue = [0, 1]\nclass = yes", fillcolor="#399de5"] ;
221 -> 222 ;
223 [label="gini = 0.0\nsamples = 1\nvalue = [1, 0]\nclass = no", fillcolor="#e58139"] ;
221 -> 223 ;
224 [label="duration <= 0.028\ngini = 0.444\nsamples = 6\nvalue = [2, 4]\nclass = yes", fillcolor="#9ccef2"] ;
218 -> 224 ;
225 [label="day_of_week <= 1.0\ngini = 0.32\nsamples = 5\nvalue = [1, 4]\nclass = yes", fillcolor="#6ab6ec"] ;
224 -> 225 ;
226 [label="duration <= 0.026\ngini = 0.5\nsamples = 2\nvalue = [1, 1]\nclass = no", fillcolor="#ffffff"] ;
225 -> 226 ;
227 [label="gini = 0.0\nsamples = 1\nvalue = [0, 1]\nclass = yes", fillcolor="#399de5"] ;
226 -> 227 ;
228 [label="gini = 0.0\nsamples = 1\nvalue = [1, 0]\nclass = no", fillcolor="#e58139"] ;
226 -> 228 ;
229 [label="gini = 0.0\nsamples = 3\nvalue = [0, 3]\nclass = yes", fillcolor="#399de5"] ;
225 -> 229 ;
230 [label="gini = 0.0\nsamples = 1\nvalue = [1, 0]\nclass = no", fillcolor="#e58139"] ;
224 -> 230 ;
231 [label="gini = 0.0\nsamples = 7\nvalue = [0, 7]\nclass = yes", fillcolor="#399de5"] ;
217 -> 231 ;
232 [label="gini = 0.0\nsamples = 5\nvalue = [5, 0]\nclass = no", fillcolor="#e58139"] ;
216 -> 232 ;
233 [label="day_of_week <= 1.5\ngini = 0.458\nsamples = 158\nvalue = [102, 56]\nclass = no", fillcolor="#f3c6a6"] ;
3 -> 233 ;
234 [label="campaign <= 0.027\ngini = 0.296\nsamples = 72\nvalue = [59, 13]\nclass = no", fillcolor="#eb9d65"] ;
233 -> 234 ;
235 [label="cons.conf.idx <= 0.613\ngini = 0.38\nsamples = 51\nvalue = [38, 13]\nclass = no", fillcolor="#eeac7d"] ;
234 -> 235 ;
236 [label="duration <= 0.028\ngini = 0.133\nsamples = 14\nvalue = [13, 1]\nclass = no", fillcolor="#e78b48"] ;
235 -> 236 ;
237 [label="gini = 0.0\nsamples = 13\nvalue = [13, 0]\nclass = no", fillcolor="#e58139"] ;
236 -> 237 ;
238 [label="gini = 0.0\nsamples = 1\nvalue = [0, 1]\nclass = yes", fillcolor="#399de5"] ;
236 -> 238 ;
239 [label="duration <= 0.032\ngini = 0.438\nsamples = 37\nvalue = [25, 12]\nclass = no", fillcolor="#f1bd98"] ;
235 -> 239 ;
240 [label="age <= 0.432\ngini = 0.469\nsamples = 32\nvalue = [20, 12]\nclass = no", fillcolor="#f5cdb0"] ;
239 -> 240 ;
241 [label="age <= 0.204\ngini = 0.413\nsamples = 24\nvalue = [17, 7]\nclass = no", fillcolor="#f0b58b"] ;
240 -> 241 ;
242 [label="age <= 0.099\ngini = 0.5\nsamples = 12\nvalue = [6, 6]\nclass = no", fillcolor="#ffffff"] ;
241 -> 242 ;
243 [label="gini = 0.0\nsamples = 3\nvalue = [3, 0]\nclass = no", fillcolor="#e58139"] ;
242 -> 243 ;
244 [label="euribor3m <= 0.028\ngini = 0.444\nsamples = 9\nvalue = [3, 6]\nclass = yes", fillcolor="#9ccef2"] ;
242 -> 244 ;
245 [label="age <= 0.154\ngini = 0.5\nsamples = 6\nvalue = [3, 3]\nclass = no", fillcolor="#ffffff"] ;
244 -> 245 ;
246 [label="gini = 0.0\nsamples = 2\nvalue = [0, 2]\nclass = yes", fillcolor="#399de5"] ;
245 -> 246 ;
247 [label="age <= 0.191\ngini = 0.375\nsamples = 4\nvalue = [3, 1]\nclass = no", fillcolor="#eeab7b"] ;
245 -> 247 ;
248 [label="gini = 0.0\nsamples = 3\nvalue = [3, 0]\nclass = no", fillcolor="#e58139"] ;
247 -> 248 ;
249 [label="gini = 0.0\nsamples = 1\nvalue = [0, 1]\nclass = yes", fillcolor="#399de5"] ;
247 -> 249 ;
250 [label="gini = 0.0\nsamples = 3\nvalue = [0, 3]\nclass = yes", fillcolor="#399de5"] ;
244 -> 250 ;
251 [label="job <= 8.0\ngini = 0.153\nsamples = 12\nvalue = [11, 1]\nclass = no", fillcolor="#e78c4b"] ;
241 -> 251 ;
252 [label="gini = 0.0\nsamples = 8\nvalue = [8, 0]\nclass = no", fillcolor="#e58139"] ;
251 -> 252 ;
253 [label="campaign <= 0.009\ngini = 0.375\nsamples = 4\nvalue = [3, 1]\nclass = no", fillcolor="#eeab7b"] ;
251 -> 253 ;
254 [label="gini = 0.0\nsamples = 2\nvalue = [2, 0]\nclass = no", fillcolor="#e58139"] ;
253 -> 254 ;
255 [label="duration <= 0.025\ngini = 0.5\nsamples = 2\nvalue = [1, 1]\nclass = no", fillcolor="#ffffff"] ;
253 -> 255 ;
256 [label="gini = 0.0\nsamples = 1\nvalue = [0, 1]\nclass = yes", fillcolor="#399de5"] ;
255 -> 256 ;
257 [label="gini = 0.0\nsamples = 1\nvalue = [1, 0]\nclass = no", fillcolor="#e58139"] ;
255 -> 257 ;
258 [label="cons.conf.idx <= 0.872\ngini = 0.469\nsamples = 8\nvalue = [3, 5]\nclass = yes", fillcolor="#b0d8f5"] ;
240 -> 258 ;
259 [label="duration <= 0.03\ngini = 0.278\nsamples = 6\nvalue = [1, 5]\nclass = yes", fillcolor="#61b1ea"] ;
258 -> 259 ;
260 [label="gini = 0.0\nsamples = 5\nvalue = [0, 5]\nclass = yes", fillcolor="#399de5"] ;
259 -> 260 ;
261 [label="gini = 0.0\nsamples = 1\nvalue = [1, 0]\nclass = no", fillcolor="#e58139"] ;
259 -> 261 ;
262 [label="gini = 0.0\nsamples = 2\nvalue = [2, 0]\nclass = no", fillcolor="#e58139"] ;
258 -> 262 ;
263 [label="gini = 0.0\nsamples = 5\nvalue = [5, 0]\nclass = no", fillcolor="#e58139"] ;
239 -> 263 ;
264 [label="gini = 0.0\nsamples = 21\nvalue = [21, 0]\nclass = no", fillcolor="#e58139"] ;
234 -> 264 ;
265 [label="duration <= 0.025\ngini = 0.5\nsamples = 86\nvalue = [43, 43]\nclass = no", fillcolor="#ffffff"] ;
233 -> 265 ;
266 [label="cons.conf.idx <= 0.839\ngini = 0.435\nsamples = 47\nvalue = [32, 15]\nclass = no", fillcolor="#f1bc96"] ;
265 -> 266 ;
267 [label="age <= 0.352\ngini = 0.238\nsamples = 29\nvalue = [25, 4]\nclass = no", fillcolor="#e99559"] ;
266 -> 267 ;
268 [label="euribor3m <= 0.045\ngini = 0.095\nsamples = 20\nvalue = [19, 1]\nclass = no", fillcolor="#e68843"] ;
267 -> 268 ;
269 [label="cons.conf.idx <= 0.778\ngini = 0.245\nsamples = 7\nvalue = [6, 1]\nclass = no", fillcolor="#e9965a"] ;
268 -> 269 ;
270 [label="gini = 0.0\nsamples = 6\nvalue = [6, 0]\nclass = no", fillcolor="#e58139"] ;
269 -> 270 ;
271 [label="gini = 0.0\nsamples = 1\nvalue = [0, 1]\nclass = yes", fillcolor="#399de5"] ;
269 -> 271 ;
272 [label="gini = 0.0\nsamples = 13\nvalue = [13, 0]\nclass = no", fillcolor="#e58139"] ;
268 -> 272 ;
273 [label="duration <= 0.015\ngini = 0.444\nsamples = 9\nvalue = [6, 3]\nclass = no", fillcolor="#f2c09c"] ;
267 -> 273 ;
274 [label="gini = 0.0\nsamples = 2\nvalue = [0, 2]\nclass = yes", fillcolor="#399de5"] ;
273 -> 274 ;
275 [label="age <= 0.414\ngini = 0.245\nsamples = 7\nvalue = [6, 1]\nclass = no", fillcolor="#e9965a"] ;
273 -> 275 ;
276 [label="gini = 0.0\nsamples = 1\nvalue = [0, 1]\nclass = yes", fillcolor="#399de5"] ;
275 -> 276 ;
277 [label="gini = 0.0\nsamples = 6\nvalue = [6, 0]\nclass = no", fillcolor="#e58139"] ;
275 -> 277 ;
278 [label="duration <= 0.012\ngini = 0.475\nsamples = 18\nvalue = [7, 11]\nclass = yes", fillcolor="#b7dbf6"] ;
266 -> 278 ;
279 [label="gini = 0.0\nsamples = 2\nvalue = [2, 0]\nclass = no", fillcolor="#e58139"] ;
278 -> 279 ;
280 [label="cons.conf.idx <= 0.939\ngini = 0.43\nsamples = 16\nvalue = [5, 11]\nclass = yes", fillcolor="#93caf1"] ;
278 -> 280 ;
281 [label="age <= 0.617\ngini = 0.278\nsamples = 12\nvalue = [2, 10]\nclass = yes", fillcolor="#61b1ea"] ;
280 -> 281 ;
282 [label="gini = 0.0\nsamples = 9\nvalue = [0, 9]\nclass = yes", fillcolor="#399de5"] ;
281 -> 282 ;
283 [label="euribor3m <= 0.032\ngini = 0.444\nsamples = 3\nvalue = [2, 1]\nclass = no", fillcolor="#f2c09c"] ;
281 -> 283 ;
284 [label="duration <= 0.021\ngini = 0.5\nsamples = 2\nvalue = [1, 1]\nclass = no", fillcolor="#ffffff"] ;
283 -> 284 ;
285 [label="gini = 0.0\nsamples = 1\nvalue = [0, 1]\nclass = yes", fillcolor="#399de5"] ;
284 -> 285 ;
286 [label="gini = 0.0\nsamples = 1\nvalue = [1, 0]\nclass = no", fillcolor="#e58139"] ;
284 -> 286 ;
287 [label="gini = 0.0\nsamples = 1\nvalue = [1, 0]\nclass = no", fillcolor="#e58139"] ;
283 -> 287 ;
288 [label="duration <= 0.018\ngini = 0.375\nsamples = 4\nvalue = [3, 1]\nclass = no", fillcolor="#eeab7b"] ;
280 -> 288 ;
289 [label="gini = 0.0\nsamples = 1\nvalue = [0, 1]\nclass = yes", fillcolor="#399de5"] ;
288 -> 289 ;
290 [label="gini = 0.0\nsamples = 3\nvalue = [3, 0]\nclass = no", fillcolor="#e58139"] ;
288 -> 290 ;
291 [label="euribor3m <= 0.052\ngini = 0.405\nsamples = 39\nvalue = [11, 28]\nclass = yes", fillcolor="#87c4ef"] ;
265 -> 291 ;
292 [label="campaign <= 0.027\ngini = 0.165\nsamples = 22\nvalue = [2, 20]\nclass = yes", fillcolor="#4da7e8"] ;
291 -> 292 ;
293 [label="duration <= 0.032\ngini = 0.091\nsamples = 21\nvalue = [1, 20]\nclass = yes", fillcolor="#43a2e6"] ;
292 -> 293 ;
294 [label="gini = 0.0\nsamples = 20\nvalue = [0, 20]\nclass = yes", fillcolor="#399de5"] ;
293 -> 294 ;
295 [label="gini = 0.0\nsamples = 1\nvalue = [1, 0]\nclass = no", fillcolor="#e58139"] ;
293 -> 295 ;
296 [label="gini = 0.0\nsamples = 1\nvalue = [1, 0]\nclass = no", fillcolor="#e58139"] ;
292 -> 296 ;
297 [label="campaign <= 0.009\ngini = 0.498\nsamples = 17\nvalue = [9, 8]\nclass = no", fillcolor="#fcf1e9"] ;
291 -> 297 ;
298 [label="duration <= 0.026\ngini = 0.346\nsamples = 9\nvalue = [7, 2]\nclass = no", fillcolor="#eca572"] ;
297 -> 298 ;
299 [label="gini = 0.0\nsamples = 1\nvalue = [0, 1]\nclass = yes", fillcolor="#399de5"] ;
298 -> 299 ;
300 [label="education <= 2.5\ngini = 0.219\nsamples = 8\nvalue = [7, 1]\nclass = no", fillcolor="#e99355"] ;
298 -> 300 ;
301 [label="job <= 5.0\ngini = 0.5\nsamples = 2\nvalue = [1, 1]\nclass = no", fillcolor="#ffffff"] ;
300 -> 301 ;
302 [label="gini = 0.0\nsamples = 1\nvalue = [1, 0]\nclass = no", fillcolor="#e58139"] ;
301 -> 302 ;
303 [label="gini = 0.0\nsamples = 1\nvalue = [0, 1]\nclass = yes", fillcolor="#399de5"] ;
301 -> 303 ;
304 [label="gini = 0.0\nsamples = 6\nvalue = [6, 0]\nclass = no", fillcolor="#e58139"] ;
300 -> 304 ;
305 [label="job <= 8.0\ngini = 0.375\nsamples = 8\nvalue = [2, 6]\nclass = yes", fillcolor="#7bbeee"] ;
297 -> 305 ;
306 [label="age <= 0.389\ngini = 0.245\nsamples = 7\nvalue = [1, 6]\nclass = yes", fillcolor="#5aade9"] ;
305 -> 306 ;
307 [label="gini = 0.0\nsamples = 5\nvalue = [0, 5]\nclass = yes", fillcolor="#399de5"] ;
306 -> 307 ;
308 [label="age <= 0.444\ngini = 0.5\nsamples = 2\nvalue = [1, 1]\nclass = no", fillcolor="#ffffff"] ;
306 -> 308 ;
309 [label="gini = 0.0\nsamples = 1\nvalue = [1, 0]\nclass = no", fillcolor="#e58139"] ;
308 -> 309 ;
310 [label="gini = 0.0\nsamples = 1\nvalue = [0, 1]\nclass = yes", fillcolor="#399de5"] ;
308 -> 310 ;
311 [label="gini = 0.0\nsamples = 1\nvalue = [1, 0]\nclass = no", fillcolor="#e58139"] ;
305 -> 311 ;
312 [label="poutcome <= 1.5\ngini = 0.484\nsamples = 1541\nvalue = [633, 908]\nclass = yes", fillcolor="#c3e1f7"] ;
2 -> 312 ;
313 [label="duration <= 0.058\ngini = 0.5\nsamples = 1078\nvalue = [554, 524]\nclass = no", fillcolor="#fef8f4"] ;
312 -> 313 ;
314 [label="age <= 0.056\ngini = 0.483\nsamples = 613\nvalue = [363, 250]\nclass = no", fillcolor="#f7d8c1"] ;
313 -> 314 ;
315 [label="gini = 0.0\nsamples = 16\nvalue = [16, 0]\nclass = no", fillcolor="#e58139"] ;
314 -> 315 ;
316 [label="duration <= 0.041\ngini = 0.487\nsamples = 597\nvalue = [347, 250]\nclass = no", fillcolor="#f8dcc8"] ;
314 -> 316 ;
317 [label="euribor3m <= 0.01\ngini = 0.449\nsamples = 244\nvalue = [161, 83]\nclass = no", fillcolor="#f2c29f"] ;
316 -> 317 ;
318 [label="day_of_week <= 1.5\ngini = 0.498\nsamples = 34\nvalue = [16, 18]\nclass = yes", fillcolor="#e9f4fc"] ;
317 -> 318 ;
319 [label="day_of_week <= 0.5\ngini = 0.355\nsamples = 13\nvalue = [10, 3]\nclass = no", fillcolor="#eda774"] ;
318 -> 319 ;
320 [label="gini = 0.0\nsamples = 5\nvalue = [5, 0]\nclass = no", fillcolor="#e58139"] ;
319 -> 320 ;
321 [label="poutcome <= 0.5\ngini = 0.469\nsamples = 8\nvalue = [5, 3]\nclass = no", fillcolor="#f5cdb0"] ;
319 -> 321 ;
322 [label="gini = 0.0\nsamples = 4\nvalue = [4, 0]\nclass = no", fillcolor="#e58139"] ;
321 -> 322 ;
323 [label="marital <= 1.5\ngini = 0.375\nsamples = 4\nvalue = [1, 3]\nclass = yes", fillcolor="#7bbeee"] ;
321 -> 323 ;
324 [label="gini = 0.0\nsamples = 3\nvalue = [0, 3]\nclass = yes", fillcolor="#399de5"] ;
323 -> 324 ;
325 [label="gini = 0.0\nsamples = 1\nvalue = [1, 0]\nclass = no", fillcolor="#e58139"] ;
323 -> 325 ;
326 [label="education <= 1.0\ngini = 0.408\nsamples = 21\nvalue = [6, 15]\nclass = yes", fillcolor="#88c4ef"] ;
318 -> 326 ;
327 [label="duration <= 0.036\ngini = 0.375\nsamples = 4\nvalue = [3, 1]\nclass = no", fillcolor="#eeab7b"] ;
326 -> 327 ;
328 [label="gini = 0.0\nsamples = 1\nvalue = [0, 1]\nclass = yes", fillcolor="#399de5"] ;
327 -> 328 ;
329 [label="gini = 0.0\nsamples = 3\nvalue = [3, 0]\nclass = no", fillcolor="#e58139"] ;
327 -> 329 ;
330 [label="age <= 0.136\ngini = 0.291\nsamples = 17\nvalue = [3, 14]\nclass = yes", fillcolor="#63b2eb"] ;
326 -> 330 ;
331 [label="duration <= 0.037\ngini = 0.444\nsamples = 3\nvalue = [2, 1]\nclass = no", fillcolor="#f2c09c"] ;
330 -> 331 ;
332 [label="gini = 0.0\nsamples = 2\nvalue = [2, 0]\nclass = no", fillcolor="#e58139"] ;
331 -> 332 ;
333 [label="gini = 0.0\nsamples = 1\nvalue = [0, 1]\nclass = yes", fillcolor="#399de5"] ;
331 -> 333 ;
334 [label="duration <= 0.039\ngini = 0.133\nsamples = 14\nvalue = [1, 13]\nclass = yes", fillcolor="#48a5e7"] ;
330 -> 334 ;
335 [label="gini = 0.0\nsamples = 11\nvalue = [0, 11]\nclass = yes", fillcolor="#399de5"] ;
334 -> 335 ;
336 [label="duration <= 0.04\ngini = 0.444\nsamples = 3\nvalue = [1, 2]\nclass = yes", fillcolor="#9ccef2"] ;
334 -> 336 ;
337 [label="gini = 0.0\nsamples = 1\nvalue = [1, 0]\nclass = no", fillcolor="#e58139"] ;
336 -> 337 ;
338 [label="gini = 0.0\nsamples = 2\nvalue = [0, 2]\nclass = yes", fillcolor="#399de5"] ;
336 -> 338 ;
339 [label="age <= 0.13\ngini = 0.427\nsamples = 210\nvalue = [145, 65]\nclass = no", fillcolor="#f1b992"] ;
317 -> 339 ;
340 [label="euribor3m <= 0.028\ngini = 0.499\nsamples = 23\nvalue = [11, 12]\nclass = yes", fillcolor="#eff7fd"] ;
339 -> 340 ;
341 [label="duration <= 0.036\ngini = 0.245\nsamples = 7\nvalue = [6, 1]\nclass = no", fillcolor="#e9965a"] ;
340 -> 341 ;
342 [label="gini = 0.0\nsamples = 1\nvalue = [0, 1]\nclass = yes", fillcolor="#399de5"] ;
341 -> 342 ;
343 [label="gini = 0.0\nsamples = 6\nvalue = [6, 0]\nclass = no", fillcolor="#e58139"] ;
341 -> 343 ;
344 [label="duration <= 0.035\ngini = 0.43\nsamples = 16\nvalue = [5, 11]\nclass = yes", fillcolor="#93caf1"] ;
340 -> 344 ;
345 [label="day_of_week <= 2.0\ngini = 0.32\nsamples = 5\nvalue = [4, 1]\nclass = no", fillcolor="#eca06a"] ;
344 -> 345 ;
346 [label="gini = 0.0\nsamples = 1\nvalue = [0, 1]\nclass = yes", fillcolor="#399de5"] ;
345 -> 346 ;
347 [label="gini = 0.0\nsamples = 4\nvalue = [4, 0]\nclass = no", fillcolor="#e58139"] ;
345 -> 347 ;
348 [label="education <= 6.5\ngini = 0.165\nsamples = 11\nvalue = [1, 10]\nclass = yes", fillcolor="#4da7e8"] ;
344 -> 348 ;
349 [label="gini = 0.0\nsamples = 10\nvalue = [0, 10]\nclass = yes", fillcolor="#399de5"] ;
348 -> 349 ;
350 [label="gini = 0.0\nsamples = 1\nvalue = [1, 0]\nclass = no", fillcolor="#e58139"] ;
348 -> 350 ;
351 [label="job <= 9.5\ngini = 0.406\nsamples = 187\nvalue = [134, 53]\nclass = no", fillcolor="#efb387"] ;
339 -> 351 ;
352 [label="day_of_week <= 3.5\ngini = 0.384\nsamples = 170\nvalue = [126, 44]\nclass = no", fillcolor="#eead7e"] ;
351 -> 352 ;
353 [label="cons.conf.idx <= 0.54\ngini = 0.41\nsamples = 146\nvalue = [104, 42]\nclass = no", fillcolor="#f0b489"] ;
352 -> 353 ;
354 [label="age <= 0.716\ngini = 0.296\nsamples = 61\nvalue = [50, 11]\nclass = no", fillcolor="#eb9d65"] ;
353 -> 354 ;
355 [label="euribor3m <= 0.056\ngini = 0.262\nsamples = 58\nvalue = [49, 9]\nclass = no", fillcolor="#ea985d"] ;
354 -> 355 ;
356 [label="euribor3m <= 0.015\ngini = 0.095\nsamples = 20\nvalue = [19, 1]\nclass = no", fillcolor="#e68843"] ;
355 -> 356 ;
357 [label="job <= 0.5\ngini = 0.32\nsamples = 5\nvalue = [4, 1]\nclass = no", fillcolor="#eca06a"] ;
356 -> 357 ;
358 [label="gini = 0.0\nsamples = 1\nvalue = [0, 1]\nclass = yes", fillcolor="#399de5"] ;
357 -> 358 ;
359 [label="gini = 0.0\nsamples = 4\nvalue = [4, 0]\nclass = no", fillcolor="#e58139"] ;
357 -> 359 ;
360 [label="gini = 0.0\nsamples = 15\nvalue = [15, 0]\nclass = no", fillcolor="#e58139"] ;
356 -> 360 ;
361 [label="cons.conf.idx <= 0.236\ngini = 0.332\nsamples = 38\nvalue = [30, 8]\nclass = no", fillcolor="#eca36e"] ;
355 -> 361 ;
362 [label="euribor3m <= 0.094\ngini = 0.133\nsamples = 14\nvalue = [13, 1]\nclass = no", fillcolor="#e78b48"] ;
361 -> 362 ;
363 [label="gini = 0.0\nsamples = 12\nvalue = [12, 0]\nclass = no", fillcolor="#e58139"] ;
362 -> 363 ;
364 [label="age <= 0.296\ngini = 0.5\nsamples = 2\nvalue = [1, 1]\nclass = no", fillcolor="#ffffff"] ;
362 -> 364 ;
365 [label="gini = 0.0\nsamples = 1\nvalue = [0, 1]\nclass = yes", fillcolor="#399de5"] ;
364 -> 365 ;
366 [label="gini = 0.0\nsamples = 1\nvalue = [1, 0]\nclass = no", fillcolor="#e58139"] ;
364 -> 366 ;
367 [label="cons.conf.idx <= 0.481\ngini = 0.413\nsamples = 24\nvalue = [17, 7]\nclass = no", fillcolor="#f0b58b"] ;
361 -> 367 ;
368 [label="duration <= 0.035\ngini = 0.49\nsamples = 7\nvalue = [3, 4]\nclass = yes", fillcolor="#cee6f8"] ;
367 -> 368 ;
369 [label="gini = 0.0\nsamples = 2\nvalue = [2, 0]\nclass = no", fillcolor="#e58139"] ;
368 -> 369 ;
370 [label="euribor3m <= 0.118\ngini = 0.32\nsamples = 5\nvalue = [1, 4]\nclass = yes", fillcolor="#6ab6ec"] ;
368 -> 370 ;
371 [label="gini = 0.0\nsamples = 4\nvalue = [0, 4]\nclass = yes", fillcolor="#399de5"] ;
370 -> 371 ;
372 [label="gini = 0.0\nsamples = 1\nvalue = [1, 0]\nclass = no", fillcolor="#e58139"] ;
370 -> 372 ;
373 [label="euribor3m <= 0.061\ngini = 0.291\nsamples = 17\nvalue = [14, 3]\nclass = no", fillcolor="#eb9c63"] ;
367 -> 373 ;
374 [label="job <= 6.5\ngini = 0.219\nsamples = 16\nvalue = [14, 2]\nclass = no", fillcolor="#e99355"] ;
373 -> 374 ;
375 [label="duration <= 0.034\ngini = 0.142\nsamples = 13\nvalue = [12, 1]\nclass = no", fillcolor="#e78c49"] ;
374 -> 375 ;
376 [label="day_of_week <= 2.5\ngini = 0.444\nsamples = 3\nvalue = [2, 1]\nclass = no", fillcolor="#f2c09c"] ;
375 -> 376 ;
377 [label="gini = 0.0\nsamples = 2\nvalue = [2, 0]\nclass = no", fillcolor="#e58139"] ;
376 -> 377 ;
378 [label="gini = 0.0\nsamples = 1\nvalue = [0, 1]\nclass = yes", fillcolor="#399de5"] ;
376 -> 378 ;
379 [label="gini = 0.0\nsamples = 10\nvalue = [10, 0]\nclass = no", fillcolor="#e58139"] ;
375 -> 379 ;
380 [label="duration <= 0.04\ngini = 0.444\nsamples = 3\nvalue = [2, 1]\nclass = no", fillcolor="#f2c09c"] ;
374 -> 380 ;
381 [label="gini = 0.0\nsamples = 1\nvalue = [0, 1]\nclass = yes", fillcolor="#399de5"] ;
380 -> 381 ;
382 [label="gini = 0.0\nsamples = 2\nvalue = [2, 0]\nclass = no", fillcolor="#e58139"] ;
380 -> 382 ;
383 [label="gini = 0.0\nsamples = 1\nvalue = [0, 1]\nclass = yes", fillcolor="#399de5"] ;
373 -> 383 ;
384 [label="education <= 1.5\ngini = 0.444\nsamples = 3\nvalue = [1, 2]\nclass = yes", fillcolor="#9ccef2"] ;
354 -> 384 ;
385 [label="gini = 0.0\nsamples = 2\nvalue = [0, 2]\nclass = yes", fillcolor="#399de5"] ;
384 -> 385 ;
386 [label="gini = 0.0\nsamples = 1\nvalue = [1, 0]\nclass = no", fillcolor="#e58139"] ;
384 -> 386 ;
387 [label="age <= 0.389\ngini = 0.463\nsamples = 85\nvalue = [54, 31]\nclass = no", fillcolor="#f4c9ab"] ;
353 -> 387 ;
388 [label="euribor3m <= 0.055\ngini = 0.494\nsamples = 45\nvalue = [25, 20]\nclass = no", fillcolor="#fae6d7"] ;
387 -> 388 ;
389 [label="duration <= 0.033\ngini = 0.452\nsamples = 29\nvalue = [19, 10]\nclass = no", fillcolor="#f3c3a1"] ;
388 -> 389 ;
390 [label="gini = 0.0\nsamples = 2\nvalue = [0, 2]\nclass = yes", fillcolor="#399de5"] ;
389 -> 390 ;
391 [label="euribor3m <= 0.021\ngini = 0.417\nsamples = 27\nvalue = [19, 8]\nclass = no", fillcolor="#f0b68c"] ;
389 -> 391 ;
392 [label="job <= 2.5\ngini = 0.497\nsamples = 13\nvalue = [7, 6]\nclass = no", fillcolor="#fbede3"] ;
391 -> 392 ;
393 [label="euribor3m <= 0.019\ngini = 0.346\nsamples = 9\nvalue = [7, 2]\nclass = no", fillcolor="#eca572"] ;
392 -> 393 ;
394 [label="gini = 0.0\nsamples = 6\nvalue = [6, 0]\nclass = no", fillcolor="#e58139"] ;
393 -> 394 ;
395 [label="age <= 0.302\ngini = 0.444\nsamples = 3\nvalue = [1, 2]\nclass = yes", fillcolor="#9ccef2"] ;
393 -> 395 ;
396 [label="gini = 0.0\nsamples = 2\nvalue = [0, 2]\nclass = yes", fillcolor="#399de5"] ;
395 -> 396 ;
397 [label="gini = 0.0\nsamples = 1\nvalue = [1, 0]\nclass = no", fillcolor="#e58139"] ;
395 -> 397 ;
398 [label="gini = 0.0\nsamples = 4\nvalue = [0, 4]\nclass = yes", fillcolor="#399de5"] ;
392 -> 398 ;
399 [label="age <= 0.173\ngini = 0.245\nsamples = 14\nvalue = [12, 2]\nclass = no", fillcolor="#e9965a"] ;
391 -> 399 ;
400 [label="education <= 2.5\ngini = 0.444\nsamples = 6\nvalue = [4, 2]\nclass = no", fillcolor="#f2c09c"] ;
399 -> 400 ;
401 [label="gini = 0.0\nsamples = 1\nvalue = [0, 1]\nclass = yes", fillcolor="#399de5"] ;
400 -> 401 ;
402 [label="day_of_week <= 2.5\ngini = 0.32\nsamples = 5\nvalue = [4, 1]\nclass = no", fillcolor="#eca06a"] ;
400 -> 402 ;
403 [label="gini = 0.0\nsamples = 3\nvalue = [3, 0]\nclass = no", fillcolor="#e58139"] ;
402 -> 403 ;
404 [label="duration <= 0.037\ngini = 0.5\nsamples = 2\nvalue = [1, 1]\nclass = no", fillcolor="#ffffff"] ;
402 -> 404 ;
405 [label="gini = 0.0\nsamples = 1\nvalue = [0, 1]\nclass = yes", fillcolor="#399de5"] ;
404 -> 405 ;
406 [label="gini = 0.0\nsamples = 1\nvalue = [1, 0]\nclass = no", fillcolor="#e58139"] ;
404 -> 406 ;
407 [label="gini = 0.0\nsamples = 8\nvalue = [8, 0]\nclass = no", fillcolor="#e58139"] ;
399 -> 407 ;
408 [label="duration <= 0.033\ngini = 0.469\nsamples = 16\nvalue = [6, 10]\nclass = yes", fillcolor="#b0d8f5"] ;
388 -> 408 ;
409 [label="gini = 0.0\nsamples = 2\nvalue = [2, 0]\nclass = no", fillcolor="#e58139"] ;
408 -> 409 ;
410 [label="age <= 0.191\ngini = 0.408\nsamples = 14\nvalue = [4, 10]\nclass = yes", fillcolor="#88c4ef"] ;
408 -> 410 ;
411 [label="age <= 0.179\ngini = 0.48\nsamples = 5\nvalue = [3, 2]\nclass = no", fillcolor="#f6d5bd"] ;
410 -> 411 ;
412 [label="day_of_week <= 2.5\ngini = 0.444\nsamples = 3\nvalue = [1, 2]\nclass = yes", fillcolor="#9ccef2"] ;
411 -> 412 ;
413 [label="gini = 0.0\nsamples = 2\nvalue = [0, 2]\nclass = yes", fillcolor="#399de5"] ;
412 -> 413 ;
414 [label="gini = 0.0\nsamples = 1\nvalue = [1, 0]\nclass = no", fillcolor="#e58139"] ;
412 -> 414 ;
415 [label="gini = 0.0\nsamples = 2\nvalue = [2, 0]\nclass = no", fillcolor="#e58139"] ;
411 -> 415 ;
416 [label="campaign <= 0.082\ngini = 0.198\nsamples = 9\nvalue = [1, 8]\nclass = yes", fillcolor="#52a9e8"] ;
410 -> 416 ;
417 [label="gini = 0.0\nsamples = 8\nvalue = [0, 8]\nclass = yes", fillcolor="#399de5"] ;
416 -> 417 ;
418 [label="gini = 0.0\nsamples = 1\nvalue = [1, 0]\nclass = no", fillcolor="#e58139"] ;
416 -> 418 ;
419 [label="age <= 0.549\ngini = 0.399\nsamples = 40\nvalue = [29, 11]\nclass = no", fillcolor="#efb184"] ;
387 -> 419 ;
420 [label="education <= 0.5\ngini = 0.219\nsamples = 16\nvalue = [14, 2]\nclass = no", fillcolor="#e99355"] ;
419 -> 420 ;
421 [label="gini = 0.0\nsamples = 2\nvalue = [0, 2]\nclass = yes", fillcolor="#399de5"] ;
420 -> 421 ;
422 [label="gini = 0.0\nsamples = 14\nvalue = [14, 0]\nclass = no", fillcolor="#e58139"] ;
420 -> 422 ;
423 [label="age <= 0.562\ngini = 0.469\nsamples = 24\nvalue = [15, 9]\nclass = no", fillcolor="#f5cdb0"] ;
419 -> 423 ;
424 [label="gini = 0.0\nsamples = 2\nvalue = [0, 2]\nclass = yes", fillcolor="#399de5"] ;
423 -> 424 ;
425 [label="cons.conf.idx <= 0.839\ngini = 0.434\nsamples = 22\nvalue = [15, 7]\nclass = no", fillcolor="#f1bc95"] ;
423 -> 425 ;
426 [label="gini = 0.0\nsamples = 6\nvalue = [6, 0]\nclass = no", fillcolor="#e58139"] ;
425 -> 426 ;
427 [label="euribor3m <= 0.019\ngini = 0.492\nsamples = 16\nvalue = [9, 7]\nclass = no", fillcolor="#f9e3d3"] ;
425 -> 427 ;
428 [label="gini = 0.0\nsamples = 3\nvalue = [0, 3]\nclass = yes", fillcolor="#399de5"] ;
427 -> 428 ;
429 [label="education <= 0.5\ngini = 0.426\nsamples = 13\nvalue = [9, 4]\nclass = no", fillcolor="#f1b991"] ;
427 -> 429 ;
430 [label="gini = 0.0\nsamples = 6\nvalue = [6, 0]\nclass = no", fillcolor="#e58139"] ;
429 -> 430 ;
431 [label="age <= 0.673\ngini = 0.49\nsamples = 7\nvalue = [3, 4]\nclass = yes", fillcolor="#cee6f8"] ;
429 -> 431 ;
432 [label="gini = 0.0\nsamples = 2\nvalue = [2, 0]\nclass = no", fillcolor="#e58139"] ;
431 -> 432 ;
433 [label="day_of_week <= 1.0\ngini = 0.32\nsamples = 5\nvalue = [1, 4]\nclass = yes", fillcolor="#6ab6ec"] ;
431 -> 433 ;
434 [label="gini = 0.0\nsamples = 1\nvalue = [1, 0]\nclass = no", fillcolor="#e58139"] ;
433 -> 434 ;
435 [label="gini = 0.0\nsamples = 4\nvalue = [0, 4]\nclass = yes", fillcolor="#399de5"] ;
433 -> 435 ;
436 [label="age <= 0.228\ngini = 0.153\nsamples = 24\nvalue = [22, 2]\nclass = no", fillcolor="#e78c4b"] ;
352 -> 436 ;
437 [label="poutcome <= 0.5\ngini = 0.32\nsamples = 10\nvalue = [8, 2]\nclass = no", fillcolor="#eca06a"] ;
436 -> 437 ;
438 [label="gini = 0.0\nsamples = 1\nvalue = [0, 1]\nclass = yes", fillcolor="#399de5"] ;
437 -> 438 ;
439 [label="job <= 0.5\ngini = 0.198\nsamples = 9\nvalue = [8, 1]\nclass = no", fillcolor="#e89152"] ;
437 -> 439 ;
440 [label="duration <= 0.039\ngini = 0.444\nsamples = 3\nvalue = [2, 1]\nclass = no", fillcolor="#f2c09c"] ;
439 -> 440 ;
441 [label="gini = 0.0\nsamples = 2\nvalue = [2, 0]\nclass = no", fillcolor="#e58139"] ;
440 -> 441 ;
442 [label="gini = 0.0\nsamples = 1\nvalue = [0, 1]\nclass = yes", fillcolor="#399de5"] ;
440 -> 442 ;
443 [label="gini = 0.0\nsamples = 6\nvalue = [6, 0]\nclass = no", fillcolor="#e58139"] ;
439 -> 443 ;
444 [label="gini = 0.0\nsamples = 14\nvalue = [14, 0]\nclass = no", fillcolor="#e58139"] ;
436 -> 444 ;
445 [label="duration <= 0.037\ngini = 0.498\nsamples = 17\nvalue = [8, 9]\nclass = yes", fillcolor="#e9f4fc"] ;
351 -> 445 ;
446 [label="education <= 4.5\ngini = 0.463\nsamples = 11\nvalue = [7, 4]\nclass = no", fillcolor="#f4c9aa"] ;
445 -> 446 ;
447 [label="gini = 0.0\nsamples = 5\nvalue = [5, 0]\nclass = no", fillcolor="#e58139"] ;
446 -> 447 ;
448 [label="age <= 0.173\ngini = 0.444\nsamples = 6\nvalue = [2, 4]\nclass = yes", fillcolor="#9ccef2"] ;
446 -> 448 ;
449 [label="gini = 0.0\nsamples = 1\nvalue = [1, 0]\nclass = no", fillcolor="#e58139"] ;
448 -> 449 ;
450 [label="cons.conf.idx <= 0.872\ngini = 0.32\nsamples = 5\nvalue = [1, 4]\nclass = yes", fillcolor="#6ab6ec"] ;
448 -> 450 ;
451 [label="gini = 0.0\nsamples = 4\nvalue = [0, 4]\nclass = yes", fillcolor="#399de5"] ;
450 -> 451 ;
452 [label="gini = 0.0\nsamples = 1\nvalue = [1, 0]\nclass = no", fillcolor="#e58139"] ;
450 -> 452 ;
453 [label="marital <= 1.5\ngini = 0.278\nsamples = 6\nvalue = [1, 5]\nclass = yes", fillcolor="#61b1ea"] ;
445 -> 453 ;
454 [label="gini = 0.0\nsamples = 5\nvalue = [0, 5]\nclass = yes", fillcolor="#399de5"] ;
453 -> 454 ;
455 [label="gini = 0.0\nsamples = 1\nvalue = [1, 0]\nclass = no", fillcolor="#e58139"] ;
453 -> 455 ;
456 [label="duration <= 0.044\ngini = 0.499\nsamples = 353\nvalue = [186, 167]\nclass = no", fillcolor="#fcf2eb"] ;
316 -> 456 ;
457 [label="duration <= 0.043\ngini = 0.472\nsamples = 76\nvalue = [29, 47]\nclass = yes", fillcolor="#b3d9f5"] ;
456 -> 457 ;
458 [label="poutcome <= 0.5\ngini = 0.498\nsamples = 30\nvalue = [16, 14]\nclass = no", fillcolor="#fcefe6"] ;
457 -> 458 ;
459 [label="euribor3m <= 0.057\ngini = 0.459\nsamples = 14\nvalue = [5, 9]\nclass = yes", fillcolor="#a7d3f3"] ;
458 -> 459 ;
460 [label="euribor3m <= 0.003\ngini = 0.32\nsamples = 10\nvalue = [2, 8]\nclass = yes", fillcolor="#6ab6ec"] ;
459 -> 460 ;
461 [label="gini = 0.0\nsamples = 1\nvalue = [1, 0]\nclass = no", fillcolor="#e58139"] ;
460 -> 461 ;
462 [label="day_of_week <= 0.5\ngini = 0.198\nsamples = 9\nvalue = [1, 8]\nclass = yes", fillcolor="#52a9e8"] ;
460 -> 462 ;
463 [label="age <= 0.42\ngini = 0.444\nsamples = 3\nvalue = [1, 2]\nclass = yes", fillcolor="#9ccef2"] ;
462 -> 463 ;
464 [label="gini = 0.0\nsamples = 1\nvalue = [1, 0]\nclass = no", fillcolor="#e58139"] ;
463 -> 464 ;
465 [label="gini = 0.0\nsamples = 2\nvalue = [0, 2]\nclass = yes", fillcolor="#399de5"] ;
463 -> 465 ;
466 [label="gini = 0.0\nsamples = 6\nvalue = [0, 6]\nclass = yes", fillcolor="#399de5"] ;
462 -> 466 ;
467 [label="campaign <= 0.018\ngini = 0.375\nsamples = 4\nvalue = [3, 1]\nclass = no", fillcolor="#eeab7b"] ;
459 -> 467 ;
468 [label="gini = 0.0\nsamples = 3\nvalue = [3, 0]\nclass = no", fillcolor="#e58139"] ;
467 -> 468 ;
469 [label="gini = 0.0\nsamples = 1\nvalue = [0, 1]\nclass = yes", fillcolor="#399de5"] ;
467 -> 469 ;
470 [label="euribor3m <= 0.05\ngini = 0.43\nsamples = 16\nvalue = [11, 5]\nclass = no", fillcolor="#f1ba93"] ;
458 -> 470 ;
471 [label="job <= 4.5\ngini = 0.18\nsamples = 10\nvalue = [9, 1]\nclass = no", fillcolor="#e88f4f"] ;
470 -> 471 ;
472 [label="gini = 0.0\nsamples = 9\nvalue = [9, 0]\nclass = no", fillcolor="#e58139"] ;
471 -> 472 ;
473 [label="gini = 0.0\nsamples = 1\nvalue = [0, 1]\nclass = yes", fillcolor="#399de5"] ;
471 -> 473 ;
474 [label="euribor3m <= 0.075\ngini = 0.444\nsamples = 6\nvalue = [2, 4]\nclass = yes", fillcolor="#9ccef2"] ;
470 -> 474 ;
475 [label="gini = 0.0\nsamples = 4\nvalue = [0, 4]\nclass = yes", fillcolor="#399de5"] ;
474 -> 475 ;
476 [label="gini = 0.0\nsamples = 2\nvalue = [2, 0]\nclass = no", fillcolor="#e58139"] ;
474 -> 476 ;
477 [label="day_of_week <= 0.5\ngini = 0.405\nsamples = 46\nvalue = [13, 33]\nclass = yes", fillcolor="#87c4ef"] ;
457 -> 477 ;
478 [label="gini = 0.0\nsamples = 10\nvalue = [0, 10]\nclass = yes", fillcolor="#399de5"] ;
477 -> 478 ;
479 [label="cons.conf.idx <= 0.674\ngini = 0.461\nsamples = 36\nvalue = [13, 23]\nclass = yes", fillcolor="#a9d4f4"] ;
477 -> 479 ;
480 [label="job <= 8.0\ngini = 0.497\nsamples = 13\nvalue = [7, 6]\nclass = no", fillcolor="#fbede3"] ;
479 -> 480 ;
481 [label="age <= 0.117\ngini = 0.463\nsamples = 11\nvalue = [7, 4]\nclass = no", fillcolor="#f4c9aa"] ;
480 -> 481 ;
482 [label="gini = 0.0\nsamples = 2\nvalue = [0, 2]\nclass = yes", fillcolor="#399de5"] ;
481 -> 482 ;
483 [label="euribor3m <= 0.002\ngini = 0.346\nsamples = 9\nvalue = [7, 2]\nclass = no", fillcolor="#eca572"] ;
481 -> 483 ;
484 [label="gini = 0.0\nsamples = 1\nvalue = [0, 1]\nclass = yes", fillcolor="#399de5"] ;
483 -> 484 ;
485 [label="marital <= 0.5\ngini = 0.219\nsamples = 8\nvalue = [7, 1]\nclass = no", fillcolor="#e99355"] ;
483 -> 485 ;
486 [label="cons.conf.idx <= 0.247\ngini = 0.5\nsamples = 2\nvalue = [1, 1]\nclass = no", fillcolor="#ffffff"] ;
485 -> 486 ;
487 [label="gini = 0.0\nsamples = 1\nvalue = [1, 0]\nclass = no", fillcolor="#e58139"] ;
486 -> 487 ;
488 [label="gini = 0.0\nsamples = 1\nvalue = [0, 1]\nclass = yes", fillcolor="#399de5"] ;
486 -> 488 ;
489 [label="gini = 0.0\nsamples = 6\nvalue = [6, 0]\nclass = no", fillcolor="#e58139"] ;
485 -> 489 ;
490 [label="gini = 0.0\nsamples = 2\nvalue = [0, 2]\nclass = yes", fillcolor="#399de5"] ;
480 -> 490 ;
491 [label="campaign <= 0.009\ngini = 0.386\nsamples = 23\nvalue = [6, 17]\nclass = yes", fillcolor="#7fc0ee"] ;
479 -> 491 ;
492 [label="duration <= 0.043\ngini = 0.291\nsamples = 17\nvalue = [3, 14]\nclass = yes", fillcolor="#63b2eb"] ;
491 -> 492 ;
493 [label="age <= 0.451\ngini = 0.42\nsamples = 10\nvalue = [3, 7]\nclass = yes", fillcolor="#8ec7f0"] ;
492 -> 493 ;
494 [label="euribor3m <= 0.049\ngini = 0.219\nsamples = 8\nvalue = [1, 7]\nclass = yes", fillcolor="#55abe9"] ;
493 -> 494 ;
495 [label="gini = 0.0\nsamples = 6\nvalue = [0, 6]\nclass = yes", fillcolor="#399de5"] ;
494 -> 495 ;
496 [label="age <= 0.284\ngini = 0.5\nsamples = 2\nvalue = [1, 1]\nclass = no", fillcolor="#ffffff"] ;
494 -> 496 ;
497 [label="gini = 0.0\nsamples = 1\nvalue = [0, 1]\nclass = yes", fillcolor="#399de5"] ;
496 -> 497 ;
498 [label="gini = 0.0\nsamples = 1\nvalue = [1, 0]\nclass = no", fillcolor="#e58139"] ;
496 -> 498 ;
499 [label="gini = 0.0\nsamples = 2\nvalue = [2, 0]\nclass = no", fillcolor="#e58139"] ;
493 -> 499 ;
500 [label="gini = 0.0\nsamples = 7\nvalue = [0, 7]\nclass = yes", fillcolor="#399de5"] ;
492 -> 500 ;
501 [label="cons.conf.idx <= 0.732\ngini = 0.5\nsamples = 6\nvalue = [3, 3]\nclass = no", fillcolor="#ffffff"] ;
491 -> 501 ;
502 [label="gini = 0.0\nsamples = 2\nvalue = [0, 2]\nclass = yes", fillcolor="#399de5"] ;
501 -> 502 ;
503 [label="education <= 4.5\ngini = 0.375\nsamples = 4\nvalue = [3, 1]\nclass = no", fillcolor="#eeab7b"] ;
501 -> 503 ;
504 [label="gini = 0.0\nsamples = 1\nvalue = [0, 1]\nclass = yes", fillcolor="#399de5"] ;
503 -> 504 ;
505 [label="gini = 0.0\nsamples = 3\nvalue = [3, 0]\nclass = no", fillcolor="#e58139"] ;
503 -> 505 ;
506 [label="campaign <= 0.1\ngini = 0.491\nsamples = 277\nvalue = [157, 120]\nclass = no", fillcolor="#f9e1d0"] ;
456 -> 506 ;
507 [label="day_of_week <= 1.5\ngini = 0.493\nsamples = 272\nvalue = [152, 120]\nclass = no", fillcolor="#fae4d5"] ;
506 -> 507 ;
508 [label="duration <= 0.048\ngini = 0.499\nsamples = 96\nvalue = [46, 50]\nclass = yes", fillcolor="#eff7fd"] ;
507 -> 508 ;
509 [label="job <= 2.5\ngini = 0.426\nsamples = 26\nvalue = [8, 18]\nclass = yes", fillcolor="#91c9f1"] ;
508 -> 509 ;
510 [label="marital <= 1.5\ngini = 0.496\nsamples = 11\nvalue = [6, 5]\nclass = no", fillcolor="#fbeade"] ;
509 -> 510 ;
511 [label="age <= 0.228\ngini = 0.278\nsamples = 6\nvalue = [5, 1]\nclass = no", fillcolor="#ea9a61"] ;
510 -> 511 ;
512 [label="gini = 0.0\nsamples = 4\nvalue = [4, 0]\nclass = no", fillcolor="#e58139"] ;
511 -> 512 ;
513 [label="campaign <= 0.009\ngini = 0.5\nsamples = 2\nvalue = [1, 1]\nclass = no", fillcolor="#ffffff"] ;
511 -> 513 ;
514 [label="gini = 0.0\nsamples = 1\nvalue = [1, 0]\nclass = no", fillcolor="#e58139"] ;
513 -> 514 ;
515 [label="gini = 0.0\nsamples = 1\nvalue = [0, 1]\nclass = yes", fillcolor="#399de5"] ;
513 -> 515 ;
516 [label="euribor3m <= 0.002\ngini = 0.32\nsamples = 5\nvalue = [1, 4]\nclass = yes", fillcolor="#6ab6ec"] ;
510 -> 516 ;
517 [label="gini = 0.0\nsamples = 1\nvalue = [1, 0]\nclass = no", fillcolor="#e58139"] ;
516 -> 517 ;
518 [label="gini = 0.0\nsamples = 4\nvalue = [0, 4]\nclass = yes", fillcolor="#399de5"] ;
516 -> 518 ;
519 [label="job <= 9.5\ngini = 0.231\nsamples = 15\nvalue = [2, 13]\nclass = yes", fillcolor="#57ace9"] ;
509 -> 519 ;
520 [label="cons.conf.idx <= 0.845\ngini = 0.142\nsamples = 13\nvalue = [1, 12]\nclass = yes", fillcolor="#49a5e7"] ;
519 -> 520 ;
521 [label="gini = 0.0\nsamples = 11\nvalue = [0, 11]\nclass = yes", fillcolor="#399de5"] ;
520 -> 521 ;
522 [label="marital <= 1.5\ngini = 0.5\nsamples = 2\nvalue = [1, 1]\nclass = no", fillcolor="#ffffff"] ;
520 -> 522 ;
523 [label="gini = 0.0\nsamples = 1\nvalue = [1, 0]\nclass = no", fillcolor="#e58139"] ;
522 -> 523 ;
524 [label="gini = 0.0\nsamples = 1\nvalue = [0, 1]\nclass = yes", fillcolor="#399de5"] ;
522 -> 524 ;
525 [label="campaign <= 0.009\ngini = 0.5\nsamples = 2\nvalue = [1, 1]\nclass = no", fillcolor="#ffffff"] ;
519 -> 525 ;
526 [label="gini = 0.0\nsamples = 1\nvalue = [1, 0]\nclass = no", fillcolor="#e58139"] ;
525 -> 526 ;
527 [label="gini = 0.0\nsamples = 1\nvalue = [0, 1]\nclass = yes", fillcolor="#399de5"] ;
525 -> 527 ;
528 [label="age <= 0.778\ngini = 0.496\nsamples = 70\nvalue = [38, 32]\nclass = no", fillcolor="#fbebe0"] ;
508 -> 528 ;
529 [label="job <= 0.5\ngini = 0.489\nsamples = 66\nvalue = [38, 28]\nclass = no", fillcolor="#f8decb"] ;
528 -> 529 ;
530 [label="age <= 0.302\ngini = 0.455\nsamples = 20\nvalue = [7, 13]\nclass = yes", fillcolor="#a4d2f3"] ;
529 -> 530 ;
531 [label="euribor3m <= 0.002\ngini = 0.278\nsamples = 12\nvalue = [2, 10]\nclass = yes", fillcolor="#61b1ea"] ;
530 -> 531 ;
532 [label="gini = 0.0\nsamples = 1\nvalue = [1, 0]\nclass = no", fillcolor="#e58139"] ;
531 -> 532 ;
533 [label="cons.conf.idx <= 0.027\ngini = 0.165\nsamples = 11\nvalue = [1, 10]\nclass = yes", fillcolor="#4da7e8"] ;
531 -> 533 ;
534 [label="age <= 0.241\ngini = 0.444\nsamples = 3\nvalue = [1, 2]\nclass = yes", fillcolor="#9ccef2"] ;
533 -> 534 ;
535 [label="gini = 0.0\nsamples = 1\nvalue = [1, 0]\nclass = no", fillcolor="#e58139"] ;
534 -> 535 ;
536 [label="gini = 0.0\nsamples = 2\nvalue = [0, 2]\nclass = yes", fillcolor="#399de5"] ;
534 -> 536 ;
537 [label="gini = 0.0\nsamples = 8\nvalue = [0, 8]\nclass = yes", fillcolor="#399de5"] ;
533 -> 537 ;
538 [label="campaign <= 0.036\ngini = 0.469\nsamples = 8\nvalue = [5, 3]\nclass = no", fillcolor="#f5cdb0"] ;
530 -> 538 ;
539 [label="euribor3m <= 0.071\ngini = 0.408\nsamples = 7\nvalue = [5, 2]\nclass = no", fillcolor="#efb388"] ;
538 -> 539 ;
540 [label="age <= 0.438\ngini = 0.278\nsamples = 6\nvalue = [5, 1]\nclass = no", fillcolor="#ea9a61"] ;
539 -> 540 ;
541 [label="gini = 0.0\nsamples = 4\nvalue = [4, 0]\nclass = no", fillcolor="#e58139"] ;
540 -> 541 ;
542 [label="euribor3m <= 0.03\ngini = 0.5\nsamples = 2\nvalue = [1, 1]\nclass = no", fillcolor="#ffffff"] ;
540 -> 542 ;
543 [label="gini = 0.0\nsamples = 1\nvalue = [1, 0]\nclass = no", fillcolor="#e58139"] ;
542 -> 543 ;
544 [label="gini = 0.0\nsamples = 1\nvalue = [0, 1]\nclass = yes", fillcolor="#399de5"] ;
542 -> 544 ;
545 [label="gini = 0.0\nsamples = 1\nvalue = [0, 1]\nclass = yes", fillcolor="#399de5"] ;
539 -> 545 ;
546 [label="gini = 0.0\nsamples = 1\nvalue = [0, 1]\nclass = yes", fillcolor="#399de5"] ;
538 -> 546 ;
547 [label="euribor3m <= 0.091\ngini = 0.44\nsamples = 46\nvalue = [31, 15]\nclass = no", fillcolor="#f2be99"] ;
529 -> 547 ;
548 [label="euribor3m <= 0.056\ngini = 0.416\nsamples = 44\nvalue = [31, 13]\nclass = no", fillcolor="#f0b68c"] ;
547 -> 548 ;
549 [label="cons.conf.idx <= 0.446\ngini = 0.475\nsamples = 31\nvalue = [19, 12]\nclass = no", fillcolor="#f5d1b6"] ;
548 -> 549 ;
550 [label="gini = 0.0\nsamples = 3\nvalue = [0, 3]\nclass = yes", fillcolor="#399de5"] ;
549 -> 550 ;
551 [label="duration <= 0.051\ngini = 0.436\nsamples = 28\nvalue = [19, 9]\nclass = no", fillcolor="#f1bd97"] ;
549 -> 551 ;
552 [label="gini = 0.0\nsamples = 7\nvalue = [7, 0]\nclass = no", fillcolor="#e58139"] ;
551 -> 552 ;
553 [label="campaign <= 0.009\ngini = 0.49\nsamples = 21\nvalue = [12, 9]\nclass = no", fillcolor="#f8e0ce"] ;
551 -> 553 ;
554 [label="euribor3m <= 0.018\ngini = 0.397\nsamples = 11\nvalue = [8, 3]\nclass = no", fillcolor="#efb083"] ;
553 -> 554 ;
555 [label="cons.conf.idx <= 0.561\ngini = 0.444\nsamples = 3\nvalue = [1, 2]\nclass = yes", fillcolor="#9ccef2"] ;
554 -> 555 ;
556 [label="gini = 0.0\nsamples = 1\nvalue = [1, 0]\nclass = no", fillcolor="#e58139"] ;
555 -> 556 ;
557 [label="gini = 0.0\nsamples = 2\nvalue = [0, 2]\nclass = yes", fillcolor="#399de5"] ;
555 -> 557 ;
558 [label="age <= 0.111\ngini = 0.219\nsamples = 8\nvalue = [7, 1]\nclass = no", fillcolor="#e99355"] ;
554 -> 558 ;
559 [label="gini = 0.0\nsamples = 1\nvalue = [0, 1]\nclass = yes", fillcolor="#399de5"] ;
558 -> 559 ;
560 [label="gini = 0.0\nsamples = 7\nvalue = [7, 0]\nclass = no", fillcolor="#e58139"] ;
558 -> 560 ;
561 [label="euribor3m <= 0.011\ngini = 0.48\nsamples = 10\nvalue = [4, 6]\nclass = yes", fillcolor="#bddef6"] ;
553 -> 561 ;
562 [label="gini = 0.0\nsamples = 3\nvalue = [3, 0]\nclass = no", fillcolor="#e58139"] ;
561 -> 562 ;
563 [label="education <= 6.5\ngini = 0.245\nsamples = 7\nvalue = [1, 6]\nclass = yes", fillcolor="#5aade9"] ;
561 -> 563 ;
564 [label="gini = 0.0\nsamples = 6\nvalue = [0, 6]\nclass = yes", fillcolor="#399de5"] ;
563 -> 564 ;
565 [label="gini = 0.0\nsamples = 1\nvalue = [1, 0]\nclass = no", fillcolor="#e58139"] ;
563 -> 565 ;
566 [label="education <= 6.5\ngini = 0.142\nsamples = 13\nvalue = [12, 1]\nclass = no", fillcolor="#e78c49"] ;
548 -> 566 ;
567 [label="gini = 0.0\nsamples = 12\nvalue = [12, 0]\nclass = no", fillcolor="#e58139"] ;
566 -> 567 ;
568 [label="gini = 0.0\nsamples = 1\nvalue = [0, 1]\nclass = yes", fillcolor="#399de5"] ;
566 -> 568 ;
569 [label="gini = 0.0\nsamples = 2\nvalue = [0, 2]\nclass = yes", fillcolor="#399de5"] ;
547 -> 569 ;
570 [label="gini = 0.0\nsamples = 4\nvalue = [0, 4]\nclass = yes", fillcolor="#399de5"] ;
528 -> 570 ;
571 [label="cons.conf.idx <= 0.939\ngini = 0.479\nsamples = 176\nvalue = [106, 70]\nclass = no", fillcolor="#f6d4bc"] ;
507 -> 571 ;
572 [label="age <= 0.765\ngini = 0.491\nsamples = 155\nvalue = [88, 67]\nclass = no", fillcolor="#f9e1d0"] ;
571 -> 572 ;
573 [label="euribor3m <= 0.05\ngini = 0.495\nsamples = 149\nvalue = [82, 67]\nclass = no", fillcolor="#fae8db"] ;
572 -> 573 ;
574 [label="job <= 7.5\ngini = 0.496\nsamples = 79\nvalue = [36, 43]\nclass = yes", fillcolor="#dfeffb"] ;
573 -> 574 ;
575 [label="age <= 0.167\ngini = 0.477\nsamples = 56\nvalue = [22, 34]\nclass = yes", fillcolor="#b9dcf6"] ;
574 -> 575 ;
576 [label="euribor3m <= 0.0\ngini = 0.153\nsamples = 12\nvalue = [1, 11]\nclass = yes", fillcolor="#4ba6e7"] ;
575 -> 576 ;
577 [label="education <= 4.5\ngini = 0.5\nsamples = 2\nvalue = [1, 1]\nclass = no", fillcolor="#ffffff"] ;
576 -> 577 ;
578 [label="gini = 0.0\nsamples = 1\nvalue = [1, 0]\nclass = no", fillcolor="#e58139"] ;
577 -> 578 ;
579 [label="gini = 0.0\nsamples = 1\nvalue = [0, 1]\nclass = yes", fillcolor="#399de5"] ;
577 -> 579 ;
580 [label="gini = 0.0\nsamples = 10\nvalue = [0, 10]\nclass = yes", fillcolor="#399de5"] ;
576 -> 580 ;
581 [label="day_of_week <= 2.5\ngini = 0.499\nsamples = 44\nvalue = [21, 23]\nclass = yes", fillcolor="#eef6fd"] ;
575 -> 581 ;
582 [label="job <= 2.0\ngini = 0.463\nsamples = 22\nvalue = [14, 8]\nclass = no", fillcolor="#f4c9aa"] ;
581 -> 582 ;
583 [label="gini = 0.0\nsamples = 9\nvalue = [9, 0]\nclass = no", fillcolor="#e58139"] ;
582 -> 583 ;
584 [label="euribor3m <= 0.003\ngini = 0.473\nsamples = 13\nvalue = [5, 8]\nclass = yes", fillcolor="#b5daf5"] ;
582 -> 584 ;
585 [label="duration <= 0.047\ngini = 0.32\nsamples = 5\nvalue = [4, 1]\nclass = no", fillcolor="#eca06a"] ;
584 -> 585 ;
586 [label="gini = 0.0\nsamples = 1\nvalue = [0, 1]\nclass = yes", fillcolor="#399de5"] ;
585 -> 586 ;
587 [label="gini = 0.0\nsamples = 4\nvalue = [4, 0]\nclass = no", fillcolor="#e58139"] ;
585 -> 587 ;
588 [label="duration <= 0.046\ngini = 0.219\nsamples = 8\nvalue = [1, 7]\nclass = yes", fillcolor="#55abe9"] ;
584 -> 588 ;
589 [label="gini = 0.0\nsamples = 1\nvalue = [1, 0]\nclass = no", fillcolor="#e58139"] ;
588 -> 589 ;
590 [label="gini = 0.0\nsamples = 7\nvalue = [0, 7]\nclass = yes", fillcolor="#399de5"] ;
588 -> 590 ;
591 [label="age <= 0.204\ngini = 0.434\nsamples = 22\nvalue = [7, 15]\nclass = yes", fillcolor="#95cbf1"] ;
581 -> 591 ;
592 [label="gini = 0.0\nsamples = 2\nvalue = [2, 0]\nclass = no", fillcolor="#e58139"] ;
591 -> 592 ;
593 [label="age <= 0.617\ngini = 0.375\nsamples = 20\nvalue = [5, 15]\nclass = yes", fillcolor="#7bbeee"] ;
591 -> 593 ;
594 [label="marital <= 1.5\ngini = 0.219\nsamples = 16\nvalue = [2, 14]\nclass = yes", fillcolor="#55abe9"] ;
593 -> 594 ;
595 [label="gini = 0.0\nsamples = 13\nvalue = [0, 13]\nclass = yes", fillcolor="#399de5"] ;
594 -> 595 ;
596 [label="duration <= 0.049\ngini = 0.444\nsamples = 3\nvalue = [2, 1]\nclass = no", fillcolor="#f2c09c"] ;
594 -> 596 ;
597 [label="gini = 0.0\nsamples = 1\nvalue = [0, 1]\nclass = yes", fillcolor="#399de5"] ;
596 -> 597 ;
598 [label="gini = 0.0\nsamples = 2\nvalue = [2, 0]\nclass = no", fillcolor="#e58139"] ;
596 -> 598 ;
599 [label="day_of_week <= 3.5\ngini = 0.375\nsamples = 4\nvalue = [3, 1]\nclass = no", fillcolor="#eeab7b"] ;
593 -> 599 ;
600 [label="gini = 0.0\nsamples = 2\nvalue = [2, 0]\nclass = no", fillcolor="#e58139"] ;
599 -> 600 ;
601 [label="euribor3m <= 0.019\ngini = 0.5\nsamples = 2\nvalue = [1, 1]\nclass = no", fillcolor="#ffffff"] ;
599 -> 601 ;
602 [label="gini = 0.0\nsamples = 1\nvalue = [0, 1]\nclass = yes", fillcolor="#399de5"] ;
601 -> 602 ;
603 [label="gini = 0.0\nsamples = 1\nvalue = [1, 0]\nclass = no", fillcolor="#e58139"] ;
601 -> 603 ;
604 [label="age <= 0.204\ngini = 0.476\nsamples = 23\nvalue = [14, 9]\nclass = no", fillcolor="#f6d2b8"] ;
574 -> 604 ;
605 [label="cons.conf.idx <= 0.456\ngini = 0.298\nsamples = 11\nvalue = [9, 2]\nclass = no", fillcolor="#eb9d65"] ;
604 -> 605 ;
606 [label="gini = 0.0\nsamples = 1\nvalue = [0, 1]\nclass = yes", fillcolor="#399de5"] ;
605 -> 606 ;
607 [label="age <= 0.08\ngini = 0.18\nsamples = 10\nvalue = [9, 1]\nclass = no", fillcolor="#e88f4f"] ;
605 -> 607 ;
608 [label="gini = 0.0\nsamples = 1\nvalue = [0, 1]\nclass = yes", fillcolor="#399de5"] ;
607 -> 608 ;
609 [label="gini = 0.0\nsamples = 9\nvalue = [9, 0]\nclass = no", fillcolor="#e58139"] ;
607 -> 609 ;
610 [label="euribor3m <= 0.009\ngini = 0.486\nsamples = 12\nvalue = [5, 7]\nclass = yes", fillcolor="#c6e3f8"] ;
604 -> 610 ;
611 [label="gini = 0.0\nsamples = 3\nvalue = [0, 3]\nclass = yes", fillcolor="#399de5"] ;
610 -> 611 ;
612 [label="duration <= 0.049\ngini = 0.494\nsamples = 9\nvalue = [5, 4]\nclass = no", fillcolor="#fae6d7"] ;
610 -> 612 ;
613 [label="gini = 0.0\nsamples = 3\nvalue = [0, 3]\nclass = yes", fillcolor="#399de5"] ;
612 -> 613 ;
614 [label="duration <= 0.057\ngini = 0.278\nsamples = 6\nvalue = [5, 1]\nclass = no", fillcolor="#ea9a61"] ;
612 -> 614 ;
615 [label="gini = 0.0\nsamples = 5\nvalue = [5, 0]\nclass = no", fillcolor="#e58139"] ;
614 -> 615 ;
616 [label="gini = 0.0\nsamples = 1\nvalue = [0, 1]\nclass = yes", fillcolor="#399de5"] ;
614 -> 616 ;
617 [label="campaign <= 0.027\ngini = 0.451\nsamples = 70\nvalue = [46, 24]\nclass = no", fillcolor="#f3c3a0"] ;
573 -> 617 ;
618 [label="cons.conf.idx <= 0.027\ngini = 0.475\nsamples = 62\nvalue = [38, 24]\nclass = no", fillcolor="#f5d1b6"] ;
617 -> 618 ;
619 [label="euribor3m <= 0.094\ngini = 0.278\nsamples = 6\nvalue = [1, 5]\nclass = yes", fillcolor="#61b1ea"] ;
618 -> 619 ;
620 [label="gini = 0.0\nsamples = 5\nvalue = [0, 5]\nclass = yes", fillcolor="#399de5"] ;
619 -> 620 ;
621 [label="gini = 0.0\nsamples = 1\nvalue = [1, 0]\nclass = no", fillcolor="#e58139"] ;
619 -> 621 ;
622 [label="duration <= 0.051\ngini = 0.448\nsamples = 56\nvalue = [37, 19]\nclass = no", fillcolor="#f2c29f"] ;
618 -> 622 ;
623 [label="duration <= 0.045\ngini = 0.367\nsamples = 33\nvalue = [25, 8]\nclass = no", fillcolor="#eda978"] ;
622 -> 623 ;
624 [label="education <= 5.5\ngini = 0.49\nsamples = 7\nvalue = [3, 4]\nclass = yes", fillcolor="#cee6f8"] ;
623 -> 624 ;
625 [label="gini = 0.0\nsamples = 3\nvalue = [0, 3]\nclass = yes", fillcolor="#399de5"] ;
624 -> 625 ;
626 [label="job <= 9.0\ngini = 0.375\nsamples = 4\nvalue = [3, 1]\nclass = no", fillcolor="#eeab7b"] ;
624 -> 626 ;
627 [label="gini = 0.0\nsamples = 3\nvalue = [3, 0]\nclass = no", fillcolor="#e58139"] ;
626 -> 627 ;
628 [label="gini = 0.0\nsamples = 1\nvalue = [0, 1]\nclass = yes", fillcolor="#399de5"] ;
626 -> 628 ;
629 [label="age <= 0.691\ngini = 0.26\nsamples = 26\nvalue = [22, 4]\nclass = no", fillcolor="#ea985d"] ;
623 -> 629 ;
630 [label="age <= 0.228\ngini = 0.211\nsamples = 25\nvalue = [22, 3]\nclass = no", fillcolor="#e99254"] ;
629 -> 630 ;
631 [label="gini = 0.0\nsamples = 11\nvalue = [11, 0]\nclass = no", fillcolor="#e58139"] ;
630 -> 631 ;
632 [label="job <= 8.0\ngini = 0.337\nsamples = 14\nvalue = [11, 3]\nclass = no", fillcolor="#eca36f"] ;
630 -> 632 ;
633 [label="age <= 0.5\ngini = 0.444\nsamples = 9\nvalue = [6, 3]\nclass = no", fillcolor="#f2c09c"] ;
632 -> 633 ;
634 [label="education <= 6.5\ngini = 0.48\nsamples = 5\nvalue = [2, 3]\nclass = yes", fillcolor="#bddef6"] ;
633 -> 634 ;
635 [label="gini = 0.0\nsamples = 3\nvalue = [0, 3]\nclass = yes", fillcolor="#399de5"] ;
634 -> 635 ;
636 [label="gini = 0.0\nsamples = 2\nvalue = [2, 0]\nclass = no", fillcolor="#e58139"] ;
634 -> 636 ;
637 [label="gini = 0.0\nsamples = 4\nvalue = [4, 0]\nclass = no", fillcolor="#e58139"] ;
633 -> 637 ;
638 [label="gini = 0.0\nsamples = 5\nvalue = [5, 0]\nclass = no", fillcolor="#e58139"] ;
632 -> 638 ;
639 [label="gini = 0.0\nsamples = 1\nvalue = [0, 1]\nclass = yes", fillcolor="#399de5"] ;
629 -> 639 ;
640 [label="duration <= 0.052\ngini = 0.499\nsamples = 23\nvalue = [12, 11]\nclass = no", fillcolor="#fdf5ef"] ;
622 -> 640 ;
641 [label="gini = 0.0\nsamples = 3\nvalue = [0, 3]\nclass = yes", fillcolor="#399de5"] ;
640 -> 641 ;
642 [label="poutcome <= 0.5\ngini = 0.48\nsamples = 20\nvalue = [12, 8]\nclass = no", fillcolor="#f6d5bd"] ;
640 -> 642 ;
643 [label="gini = 0.0\nsamples = 5\nvalue = [5, 0]\nclass = no", fillcolor="#e58139"] ;
642 -> 643 ;
644 [label="duration <= 0.058\ngini = 0.498\nsamples = 15\nvalue = [7, 8]\nclass = yes", fillcolor="#e6f3fc"] ;
642 -> 644 ;
645 [label="duration <= 0.054\ngini = 0.473\nsamples = 13\nvalue = [5, 8]\nclass = yes", fillcolor="#b5daf5"] ;
644 -> 645 ;
646 [label="age <= 0.136\ngini = 0.375\nsamples = 4\nvalue = [3, 1]\nclass = no", fillcolor="#eeab7b"] ;
645 -> 646 ;
647 [label="gini = 0.0\nsamples = 1\nvalue = [0, 1]\nclass = yes", fillcolor="#399de5"] ;
646 -> 647 ;
648 [label="gini = 0.0\nsamples = 3\nvalue = [3, 0]\nclass = no", fillcolor="#e58139"] ;
646 -> 648 ;
649 [label="education <= 5.5\ngini = 0.346\nsamples = 9\nvalue = [2, 7]\nclass = yes", fillcolor="#72b9ec"] ;
645 -> 649 ;
650 [label="gini = 0.0\nsamples = 4\nvalue = [0, 4]\nclass = yes", fillcolor="#399de5"] ;
649 -> 650 ;
651 [label="duration <= 0.057\ngini = 0.48\nsamples = 5\nvalue = [2, 3]\nclass = yes", fillcolor="#bddef6"] ;
649 -> 651 ;
652 [label="age <= 0.204\ngini = 0.375\nsamples = 4\nvalue = [1, 3]\nclass = yes", fillcolor="#7bbeee"] ;
651 -> 652 ;
653 [label="duration <= 0.056\ngini = 0.5\nsamples = 2\nvalue = [1, 1]\nclass = no", fillcolor="#ffffff"] ;
652 -> 653 ;
654 [label="gini = 0.0\nsamples = 1\nvalue = [1, 0]\nclass = no", fillcolor="#e58139"] ;
653 -> 654 ;
655 [label="gini = 0.0\nsamples = 1\nvalue = [0, 1]\nclass = yes", fillcolor="#399de5"] ;
653 -> 655 ;
656 [label="gini = 0.0\nsamples = 2\nvalue = [0, 2]\nclass = yes", fillcolor="#399de5"] ;
652 -> 656 ;
657 [label="gini = 0.0\nsamples = 1\nvalue = [1, 0]\nclass = no", fillcolor="#e58139"] ;
651 -> 657 ;
658 [label="gini = 0.0\nsamples = 2\nvalue = [2, 0]\nclass = no", fillcolor="#e58139"] ;
644 -> 658 ;
659 [label="gini = 0.0\nsamples = 8\nvalue = [8, 0]\nclass = no", fillcolor="#e58139"] ;
617 -> 659 ;
660 [label="gini = 0.0\nsamples = 6\nvalue = [6, 0]\nclass = no", fillcolor="#e58139"] ;
572 -> 660 ;
661 [label="euribor3m <= 0.02\ngini = 0.245\nsamples = 21\nvalue = [18, 3]\nclass = no", fillcolor="#e9965a"] ;
571 -> 661 ;
662 [label="education <= 1.5\ngini = 0.48\nsamples = 5\nvalue = [3, 2]\nclass = no", fillcolor="#f6d5bd"] ;
661 -> 662 ;
663 [label="gini = 0.0\nsamples = 3\nvalue = [3, 0]\nclass = no", fillcolor="#e58139"] ;
662 -> 663 ;
664 [label="gini = 0.0\nsamples = 2\nvalue = [0, 2]\nclass = yes", fillcolor="#399de5"] ;
662 -> 664 ;
665 [label="age <= 0.685\ngini = 0.117\nsamples = 16\nvalue = [15, 1]\nclass = no", fillcolor="#e78946"] ;
661 -> 665 ;
666 [label="gini = 0.0\nsamples = 14\nvalue = [14, 0]\nclass = no", fillcolor="#e58139"] ;
665 -> 666 ;
667 [label="duration <= 0.051\ngini = 0.5\nsamples = 2\nvalue = [1, 1]\nclass = no", fillcolor="#ffffff"] ;
665 -> 667 ;
668 [label="gini = 0.0\nsamples = 1\nvalue = [1, 0]\nclass = no", fillcolor="#e58139"] ;
667 -> 668 ;
669 [label="gini = 0.0\nsamples = 1\nvalue = [0, 1]\nclass = yes", fillcolor="#399de5"] ;
667 -> 669 ;
670 [label="gini = 0.0\nsamples = 5\nvalue = [5, 0]\nclass = no", fillcolor="#e58139"] ;
506 -> 670 ;
671 [label="day_of_week <= 2.5\ngini = 0.484\nsamples = 465\nvalue = [191, 274]\nclass = yes", fillcolor="#c3e1f7"] ;
313 -> 671 ;
672 [label="job <= 2.5\ngini = 0.498\nsamples = 261\nvalue = [122, 139]\nclass = yes", fillcolor="#e7f3fc"] ;
671 -> 672 ;
673 [label="age <= 0.364\ngini = 0.475\nsamples = 116\nvalue = [45, 71]\nclass = yes", fillcolor="#b6dbf5"] ;
672 -> 673 ;
674 [label="campaign <= 0.045\ngini = 0.495\nsamples = 91\nvalue = [41, 50]\nclass = yes", fillcolor="#dbedfa"] ;
673 -> 674 ;
675 [label="cons.conf.idx <= 0.247\ngini = 0.484\nsamples = 78\nvalue = [32, 46]\nclass = yes", fillcolor="#c3e1f7"] ;
674 -> 675 ;
676 [label="age <= 0.253\ngini = 0.42\nsamples = 10\nvalue = [7, 3]\nclass = no", fillcolor="#f0b78e"] ;
675 -> 676 ;
677 [label="euribor3m <= 0.092\ngini = 0.48\nsamples = 5\nvalue = [2, 3]\nclass = yes", fillcolor="#bddef6"] ;
676 -> 677 ;
678 [label="duration <= 0.069\ngini = 0.444\nsamples = 3\nvalue = [2, 1]\nclass = no", fillcolor="#f2c09c"] ;
677 -> 678 ;
679 [label="gini = 0.0\nsamples = 2\nvalue = [2, 0]\nclass = no", fillcolor="#e58139"] ;
678 -> 679 ;
680 [label="gini = 0.0\nsamples = 1\nvalue = [0, 1]\nclass = yes", fillcolor="#399de5"] ;
678 -> 680 ;
681 [label="gini = 0.0\nsamples = 2\nvalue = [0, 2]\nclass = yes", fillcolor="#399de5"] ;
677 -> 681 ;
682 [label="gini = 0.0\nsamples = 5\nvalue = [5, 0]\nclass = no", fillcolor="#e58139"] ;
676 -> 682 ;
683 [label="duration <= 0.092\ngini = 0.465\nsamples = 68\nvalue = [25, 43]\nclass = yes", fillcolor="#acd6f4"] ;
675 -> 683 ;
684 [label="duration <= 0.076\ngini = 0.437\nsamples = 59\nvalue = [19, 40]\nclass = yes", fillcolor="#97ccf1"] ;
683 -> 684 ;
685 [label="cons.conf.idx <= 0.778\ngini = 0.49\nsamples = 42\nvalue = [18, 24]\nclass = yes", fillcolor="#cee6f8"] ;
684 -> 685 ;
686 [label="euribor3m <= 0.012\ngini = 0.417\nsamples = 27\nvalue = [8, 19]\nclass = yes", fillcolor="#8cc6f0"] ;
685 -> 686 ;
687 [label="euribor3m <= 0.001\ngini = 0.496\nsamples = 11\nvalue = [6, 5]\nclass = no", fillcolor="#fbeade"] ;
686 -> 687 ;
688 [label="gini = 0.0\nsamples = 3\nvalue = [0, 3]\nclass = yes", fillcolor="#399de5"] ;
687 -> 688 ;
689 [label="poutcome <= 0.5\ngini = 0.375\nsamples = 8\nvalue = [6, 2]\nclass = no", fillcolor="#eeab7b"] ;
687 -> 689 ;
690 [label="gini = 0.0\nsamples = 5\nvalue = [5, 0]\nclass = no", fillcolor="#e58139"] ;
689 -> 690 ;
691 [label="euribor3m <= 0.009\ngini = 0.444\nsamples = 3\nvalue = [1, 2]\nclass = yes", fillcolor="#9ccef2"] ;
689 -> 691 ;
692 [label="gini = 0.0\nsamples = 2\nvalue = [0, 2]\nclass = yes", fillcolor="#399de5"] ;
691 -> 692 ;
693 [label="gini = 0.0\nsamples = 1\nvalue = [1, 0]\nclass = no", fillcolor="#e58139"] ;
691 -> 693 ;
694 [label="age <= 0.167\ngini = 0.219\nsamples = 16\nvalue = [2, 14]\nclass = yes", fillcolor="#55abe9"] ;
686 -> 694 ;
695 [label="poutcome <= 0.5\ngini = 0.444\nsamples = 3\nvalue = [2, 1]\nclass = no", fillcolor="#f2c09c"] ;
694 -> 695 ;
696 [label="gini = 0.0\nsamples = 1\nvalue = [0, 1]\nclass = yes", fillcolor="#399de5"] ;
695 -> 696 ;
697 [label="gini = 0.0\nsamples = 2\nvalue = [2, 0]\nclass = no", fillcolor="#e58139"] ;
695 -> 697 ;
698 [label="gini = 0.0\nsamples = 13\nvalue = [0, 13]\nclass = yes", fillcolor="#399de5"] ;
694 -> 698 ;
699 [label="age <= 0.16\ngini = 0.444\nsamples = 15\nvalue = [10, 5]\nclass = no", fillcolor="#f2c09c"] ;
685 -> 699 ;
700 [label="gini = 0.0\nsamples = 2\nvalue = [0, 2]\nclass = yes", fillcolor="#399de5"] ;
699 -> 700 ;
701 [label="age <= 0.321\ngini = 0.355\nsamples = 13\nvalue = [10, 3]\nclass = no", fillcolor="#eda774"] ;
699 -> 701 ;
702 [label="day_of_week <= 0.5\ngini = 0.278\nsamples = 12\nvalue = [10, 2]\nclass = no", fillcolor="#ea9a61"] ;
701 -> 702 ;
703 [label="poutcome <= 0.5\ngini = 0.5\nsamples = 2\nvalue = [1, 1]\nclass = no", fillcolor="#ffffff"] ;
702 -> 703 ;
704 [label="gini = 0.0\nsamples = 1\nvalue = [0, 1]\nclass = yes", fillcolor="#399de5"] ;
703 -> 704 ;
705 [label="gini = 0.0\nsamples = 1\nvalue = [1, 0]\nclass = no", fillcolor="#e58139"] ;
703 -> 705 ;
706 [label="marital <= 1.5\ngini = 0.18\nsamples = 10\nvalue = [9, 1]\nclass = no", fillcolor="#e88f4f"] ;
702 -> 706 ;
707 [label="gini = 0.0\nsamples = 7\nvalue = [7, 0]\nclass = no", fillcolor="#e58139"] ;
706 -> 707 ;
708 [label="duration <= 0.068\ngini = 0.444\nsamples = 3\nvalue = [2, 1]\nclass = no", fillcolor="#f2c09c"] ;
706 -> 708 ;
709 [label="gini = 0.0\nsamples = 2\nvalue = [2, 0]\nclass = no", fillcolor="#e58139"] ;
708 -> 709 ;
710 [label="gini = 0.0\nsamples = 1\nvalue = [0, 1]\nclass = yes", fillcolor="#399de5"] ;
708 -> 710 ;
711 [label="gini = 0.0\nsamples = 1\nvalue = [0, 1]\nclass = yes", fillcolor="#399de5"] ;
701 -> 711 ;
712 [label="age <= 0.327\ngini = 0.111\nsamples = 17\nvalue = [1, 16]\nclass = yes", fillcolor="#45a3e7"] ;
684 -> 712 ;
713 [label="gini = 0.0\nsamples = 15\nvalue = [0, 15]\nclass = yes", fillcolor="#399de5"] ;
712 -> 713 ;
714 [label="job <= 1.0\ngini = 0.5\nsamples = 2\nvalue = [1, 1]\nclass = no", fillcolor="#ffffff"] ;
712 -> 714 ;
715 [label="gini = 0.0\nsamples = 1\nvalue = [1, 0]\nclass = no", fillcolor="#e58139"] ;
714 -> 715 ;
716 [label="gini = 0.0\nsamples = 1\nvalue = [0, 1]\nclass = yes", fillcolor="#399de5"] ;
714 -> 716 ;
717 [label="age <= 0.228\ngini = 0.444\nsamples = 9\nvalue = [6, 3]\nclass = no", fillcolor="#f2c09c"] ;
683 -> 717 ;
718 [label="gini = 0.0\nsamples = 4\nvalue = [4, 0]\nclass = no", fillcolor="#e58139"] ;
717 -> 718 ;
719 [label="cons.conf.idx <= 0.651\ngini = 0.48\nsamples = 5\nvalue = [2, 3]\nclass = yes", fillcolor="#bddef6"] ;
717 -> 719 ;
720 [label="gini = 0.0\nsamples = 2\nvalue = [2, 0]\nclass = no", fillcolor="#e58139"] ;
719 -> 720 ;
721 [label="gini = 0.0\nsamples = 3\nvalue = [0, 3]\nclass = yes", fillcolor="#399de5"] ;
719 -> 721 ;
722 [label="cons.conf.idx <= 0.805\ngini = 0.426\nsamples = 13\nvalue = [9, 4]\nclass = no", fillcolor="#f1b991"] ;
674 -> 722 ;
723 [label="cons.conf.idx <= 0.446\ngini = 0.298\nsamples = 11\nvalue = [9, 2]\nclass = no", fillcolor="#eb9d65"] ;
722 -> 723 ;
724 [label="day_of_week <= 1.5\ngini = 0.444\nsamples = 3\nvalue = [1, 2]\nclass = yes", fillcolor="#9ccef2"] ;
723 -> 724 ;
725 [label="gini = 0.0\nsamples = 2\nvalue = [0, 2]\nclass = yes", fillcolor="#399de5"] ;
724 -> 725 ;
726 [label="gini = 0.0\nsamples = 1\nvalue = [1, 0]\nclass = no", fillcolor="#e58139"] ;
724 -> 726 ;
727 [label="gini = 0.0\nsamples = 8\nvalue = [8, 0]\nclass = no", fillcolor="#e58139"] ;
723 -> 727 ;
728 [label="gini = 0.0\nsamples = 2\nvalue = [0, 2]\nclass = yes", fillcolor="#399de5"] ;
722 -> 728 ;
729 [label="euribor3m <= 0.017\ngini = 0.269\nsamples = 25\nvalue = [4, 21]\nclass = yes", fillcolor="#5fb0ea"] ;
673 -> 729 ;
730 [label="age <= 0.407\ngini = 0.375\nsamples = 4\nvalue = [3, 1]\nclass = no", fillcolor="#eeab7b"] ;
729 -> 730 ;
731 [label="gini = 0.0\nsamples = 1\nvalue = [0, 1]\nclass = yes", fillcolor="#399de5"] ;
730 -> 731 ;
732 [label="gini = 0.0\nsamples = 3\nvalue = [3, 0]\nclass = no", fillcolor="#e58139"] ;
730 -> 732 ;
733 [label="job <= 1.5\ngini = 0.091\nsamples = 21\nvalue = [1, 20]\nclass = yes", fillcolor="#43a2e6"] ;
729 -> 733 ;
734 [label="gini = 0.0\nsamples = 18\nvalue = [0, 18]\nclass = yes", fillcolor="#399de5"] ;
733 -> 734 ;
735 [label="duration <= 0.075\ngini = 0.444\nsamples = 3\nvalue = [1, 2]\nclass = yes", fillcolor="#9ccef2"] ;
733 -> 735 ;
736 [label="gini = 0.0\nsamples = 1\nvalue = [1, 0]\nclass = no", fillcolor="#e58139"] ;
735 -> 736 ;
737 [label="gini = 0.0\nsamples = 2\nvalue = [0, 2]\nclass = yes", fillcolor="#399de5"] ;
735 -> 737 ;
738 [label="cons.conf.idx <= 0.732\ngini = 0.498\nsamples = 145\nvalue = [77, 68]\nclass = no", fillcolor="#fcf0e8"] ;
672 -> 738 ;
739 [label="poutcome <= 0.5\ngini = 0.492\nsamples = 73\nvalue = [32, 41]\nclass = yes", fillcolor="#d4e9f9"] ;
738 -> 739 ;
740 [label="age <= 0.235\ngini = 0.469\nsamples = 24\nvalue = [15, 9]\nclass = no", fillcolor="#f5cdb0"] ;
739 -> 740 ;
741 [label="education <= 2.5\ngini = 0.153\nsamples = 12\nvalue = [11, 1]\nclass = no", fillcolor="#e78c4b"] ;
740 -> 741 ;
742 [label="euribor3m <= 0.035\ngini = 0.5\nsamples = 2\nvalue = [1, 1]\nclass = no", fillcolor="#ffffff"] ;
741 -> 742 ;
743 [label="gini = 0.0\nsamples = 1\nvalue = [1, 0]\nclass = no", fillcolor="#e58139"] ;
742 -> 743 ;
744 [label="gini = 0.0\nsamples = 1\nvalue = [0, 1]\nclass = yes", fillcolor="#399de5"] ;
742 -> 744 ;
745 [label="gini = 0.0\nsamples = 10\nvalue = [10, 0]\nclass = no", fillcolor="#e58139"] ;
741 -> 745 ;
746 [label="euribor3m <= 0.088\ngini = 0.444\nsamples = 12\nvalue = [4, 8]\nclass = yes", fillcolor="#9ccef2"] ;
740 -> 746 ;
747 [label="campaign <= 0.036\ngini = 0.32\nsamples = 10\nvalue = [2, 8]\nclass = yes", fillcolor="#6ab6ec"] ;
746 -> 747 ;
748 [label="campaign <= 0.009\ngini = 0.198\nsamples = 9\nvalue = [1, 8]\nclass = yes", fillcolor="#52a9e8"] ;
747 -> 748 ;
749 [label="gini = 0.0\nsamples = 6\nvalue = [0, 6]\nclass = yes", fillcolor="#399de5"] ;
748 -> 749 ;
750 [label="age <= 0.543\ngini = 0.444\nsamples = 3\nvalue = [1, 2]\nclass = yes", fillcolor="#9ccef2"] ;
748 -> 750 ;
751 [label="gini = 0.0\nsamples = 1\nvalue = [1, 0]\nclass = no", fillcolor="#e58139"] ;
750 -> 751 ;
752 [label="gini = 0.0\nsamples = 2\nvalue = [0, 2]\nclass = yes", fillcolor="#399de5"] ;
750 -> 752 ;
753 [label="gini = 0.0\nsamples = 1\nvalue = [1, 0]\nclass = no", fillcolor="#e58139"] ;
747 -> 753 ;
754 [label="gini = 0.0\nsamples = 2\nvalue = [2, 0]\nclass = no", fillcolor="#e58139"] ;
746 -> 754 ;
755 [label="duration <= 0.103\ngini = 0.453\nsamples = 49\nvalue = [17, 32]\nclass = yes", fillcolor="#a2d1f3"] ;
739 -> 755 ;
756 [label="duration <= 0.083\ngini = 0.435\nsamples = 47\nvalue = [15, 32]\nclass = yes", fillcolor="#96cbf1"] ;
755 -> 756 ;
757 [label="euribor3m <= 0.027\ngini = 0.489\nsamples = 33\nvalue = [14, 19]\nclass = yes", fillcolor="#cbe5f8"] ;
756 -> 757 ;
758 [label="euribor3m <= 0.001\ngini = 0.397\nsamples = 11\nvalue = [8, 3]\nclass = no", fillcolor="#efb083"] ;
757 -> 758 ;
759 [label="gini = 0.0\nsamples = 2\nvalue = [0, 2]\nclass = yes", fillcolor="#399de5"] ;
758 -> 759 ;
760 [label="duration <= 0.064\ngini = 0.198\nsamples = 9\nvalue = [8, 1]\nclass = no", fillcolor="#e89152"] ;
758 -> 760 ;
761 [label="age <= 0.296\ngini = 0.5\nsamples = 2\nvalue = [1, 1]\nclass = no", fillcolor="#ffffff"] ;
760 -> 761 ;
762 [label="gini = 0.0\nsamples = 1\nvalue = [1, 0]\nclass = no", fillcolor="#e58139"] ;
761 -> 762 ;
763 [label="gini = 0.0\nsamples = 1\nvalue = [0, 1]\nclass = yes", fillcolor="#399de5"] ;
761 -> 763 ;
764 [label="gini = 0.0\nsamples = 7\nvalue = [7, 0]\nclass = no", fillcolor="#e58139"] ;
760 -> 764 ;
765 [label="job <= 5.5\ngini = 0.397\nsamples = 22\nvalue = [6, 16]\nclass = yes", fillcolor="#83c2ef"] ;
757 -> 765 ;
766 [label="euribor3m <= 0.058\ngini = 0.494\nsamples = 9\nvalue = [5, 4]\nclass = no", fillcolor="#fae6d7"] ;
765 -> 766 ;
767 [label="cons.conf.idx <= 0.508\ngini = 0.444\nsamples = 6\nvalue = [2, 4]\nclass = yes", fillcolor="#9ccef2"] ;
766 -> 767 ;
768 [label="gini = 0.0\nsamples = 3\nvalue = [0, 3]\nclass = yes", fillcolor="#399de5"] ;
767 -> 768 ;
769 [label="campaign <= 0.009\ngini = 0.444\nsamples = 3\nvalue = [2, 1]\nclass = no", fillcolor="#f2c09c"] ;
767 -> 769 ;
770 [label="gini = 0.0\nsamples = 1\nvalue = [0, 1]\nclass = yes", fillcolor="#399de5"] ;
769 -> 770 ;
771 [label="gini = 0.0\nsamples = 2\nvalue = [2, 0]\nclass = no", fillcolor="#e58139"] ;
769 -> 771 ;
772 [label="gini = 0.0\nsamples = 3\nvalue = [3, 0]\nclass = no", fillcolor="#e58139"] ;
766 -> 772 ;
773 [label="duration <= 0.078\ngini = 0.142\nsamples = 13\nvalue = [1, 12]\nclass = yes", fillcolor="#49a5e7"] ;
765 -> 773 ;
774 [label="gini = 0.0\nsamples = 11\nvalue = [0, 11]\nclass = yes", fillcolor="#399de5"] ;
773 -> 774 ;
775 [label="campaign <= 0.055\ngini = 0.5\nsamples = 2\nvalue = [1, 1]\nclass = no", fillcolor="#ffffff"] ;
773 -> 775 ;
776 [label="gini = 0.0\nsamples = 1\nvalue = [1, 0]\nclass = no", fillcolor="#e58139"] ;
775 -> 776 ;
777 [label="gini = 0.0\nsamples = 1\nvalue = [0, 1]\nclass = yes", fillcolor="#399de5"] ;
775 -> 777 ;
778 [label="euribor3m <= 0.093\ngini = 0.133\nsamples = 14\nvalue = [1, 13]\nclass = yes", fillcolor="#48a5e7"] ;
756 -> 778 ;
779 [label="gini = 0.0\nsamples = 13\nvalue = [0, 13]\nclass = yes", fillcolor="#399de5"] ;
778 -> 779 ;
780 [label="gini = 0.0\nsamples = 1\nvalue = [1, 0]\nclass = no", fillcolor="#e58139"] ;
778 -> 780 ;
781 [label="gini = 0.0\nsamples = 2\nvalue = [2, 0]\nclass = no", fillcolor="#e58139"] ;
755 -> 781 ;
782 [label="poutcome <= 0.5\ngini = 0.469\nsamples = 72\nvalue = [45, 27]\nclass = no", fillcolor="#f5cdb0"] ;
738 -> 782 ;
783 [label="campaign <= 0.045\ngini = 0.48\nsamples = 20\nvalue = [8, 12]\nclass = yes", fillcolor="#bddef6"] ;
782 -> 783 ;
784 [label="day_of_week <= 1.5\ngini = 0.415\nsamples = 17\nvalue = [5, 12]\nclass = yes", fillcolor="#8bc6f0"] ;
783 -> 784 ;
785 [label="euribor3m <= 0.036\ngini = 0.245\nsamples = 14\nvalue = [2, 12]\nclass = yes", fillcolor="#5aade9"] ;
784 -> 785 ;
786 [label="gini = 0.0\nsamples = 9\nvalue = [0, 9]\nclass = yes", fillcolor="#399de5"] ;
785 -> 786 ;
787 [label="education <= 2.5\ngini = 0.48\nsamples = 5\nvalue = [2, 3]\nclass = yes", fillcolor="#bddef6"] ;
785 -> 787 ;
788 [label="gini = 0.0\nsamples = 2\nvalue = [0, 2]\nclass = yes", fillcolor="#399de5"] ;
787 -> 788 ;
789 [label="marital <= 0.5\ngini = 0.444\nsamples = 3\nvalue = [2, 1]\nclass = no", fillcolor="#f2c09c"] ;
787 -> 789 ;
790 [label="gini = 0.0\nsamples = 1\nvalue = [0, 1]\nclass = yes", fillcolor="#399de5"] ;
789 -> 790 ;
791 [label="gini = 0.0\nsamples = 2\nvalue = [2, 0]\nclass = no", fillcolor="#e58139"] ;
789 -> 791 ;
792 [label="gini = 0.0\nsamples = 3\nvalue = [3, 0]\nclass = no", fillcolor="#e58139"] ;
784 -> 792 ;
793 [label="gini = 0.0\nsamples = 3\nvalue = [3, 0]\nclass = no", fillcolor="#e58139"] ;
783 -> 793 ;
794 [label="duration <= 0.066\ngini = 0.411\nsamples = 52\nvalue = [37, 15]\nclass = no", fillcolor="#f0b489"] ;
782 -> 794 ;
795 [label="gini = 0.0\nsamples = 10\nvalue = [10, 0]\nclass = no", fillcolor="#e58139"] ;
794 -> 795 ;
796 [label="duration <= 0.073\ngini = 0.459\nsamples = 42\nvalue = [27, 15]\nclass = no", fillcolor="#f3c7a7"] ;
794 -> 796 ;
797 [label="marital <= 1.5\ngini = 0.463\nsamples = 11\nvalue = [4, 7]\nclass = yes", fillcolor="#aad5f4"] ;
796 -> 797 ;
798 [label="day_of_week <= 1.5\ngini = 0.245\nsamples = 7\nvalue = [1, 6]\nclass = yes", fillcolor="#5aade9"] ;
797 -> 798 ;
799 [label="gini = 0.0\nsamples = 5\nvalue = [0, 5]\nclass = yes", fillcolor="#399de5"] ;
798 -> 799 ;
800 [label="duration <= 0.069\ngini = 0.5\nsamples = 2\nvalue = [1, 1]\nclass = no", fillcolor="#ffffff"] ;
798 -> 800 ;
801 [label="gini = 0.0\nsamples = 1\nvalue = [1, 0]\nclass = no", fillcolor="#e58139"] ;
800 -> 801 ;
802 [label="gini = 0.0\nsamples = 1\nvalue = [0, 1]\nclass = yes", fillcolor="#399de5"] ;
800 -> 802 ;
803 [label="cons.conf.idx <= 0.939\ngini = 0.375\nsamples = 4\nvalue = [3, 1]\nclass = no", fillcolor="#eeab7b"] ;
797 -> 803 ;
804 [label="gini = 0.0\nsamples = 3\nvalue = [3, 0]\nclass = no", fillcolor="#e58139"] ;
803 -> 804 ;
805 [label="gini = 0.0\nsamples = 1\nvalue = [0, 1]\nclass = yes", fillcolor="#399de5"] ;
803 -> 805 ;
806 [label="job <= 6.5\ngini = 0.383\nsamples = 31\nvalue = [23, 8]\nclass = no", fillcolor="#eead7e"] ;
796 -> 806 ;
807 [label="education <= 6.5\ngini = 0.133\nsamples = 14\nvalue = [13, 1]\nclass = no", fillcolor="#e78b48"] ;
806 -> 807 ;
808 [label="gini = 0.0\nsamples = 12\nvalue = [12, 0]\nclass = no", fillcolor="#e58139"] ;
807 -> 808 ;
809 [label="age <= 0.778\ngini = 0.5\nsamples = 2\nvalue = [1, 1]\nclass = no", fillcolor="#ffffff"] ;
807 -> 809 ;
810 [label="gini = 0.0\nsamples = 1\nvalue = [0, 1]\nclass = yes", fillcolor="#399de5"] ;
809 -> 810 ;
811 [label="gini = 0.0\nsamples = 1\nvalue = [1, 0]\nclass = no", fillcolor="#e58139"] ;
809 -> 811 ;
812 [label="campaign <= 0.027\ngini = 0.484\nsamples = 17\nvalue = [10, 7]\nclass = no", fillcolor="#f7d9c4"] ;
806 -> 812 ;
813 [label="duration <= 0.096\ngini = 0.444\nsamples = 15\nvalue = [10, 5]\nclass = no", fillcolor="#f2c09c"] ;
812 -> 813 ;
814 [label="job <= 8.5\ngini = 0.355\nsamples = 13\nvalue = [10, 3]\nclass = no", fillcolor="#eda774"] ;
813 -> 814 ;
815 [label="cons.conf.idx <= 0.906\ngini = 0.5\nsamples = 6\nvalue = [3, 3]\nclass = no", fillcolor="#ffffff"] ;
814 -> 815 ;
816 [label="day_of_week <= 1.5\ngini = 0.375\nsamples = 4\nvalue = [3, 1]\nclass = no", fillcolor="#eeab7b"] ;
815 -> 816 ;
817 [label="gini = 0.0\nsamples = 3\nvalue = [3, 0]\nclass = no", fillcolor="#e58139"] ;
816 -> 817 ;
818 [label="gini = 0.0\nsamples = 1\nvalue = [0, 1]\nclass = yes", fillcolor="#399de5"] ;
816 -> 818 ;
819 [label="gini = 0.0\nsamples = 2\nvalue = [0, 2]\nclass = yes", fillcolor="#399de5"] ;
815 -> 819 ;
820 [label="gini = 0.0\nsamples = 7\nvalue = [7, 0]\nclass = no", fillcolor="#e58139"] ;
814 -> 820 ;
821 [label="gini = 0.0\nsamples = 2\nvalue = [0, 2]\nclass = yes", fillcolor="#399de5"] ;
813 -> 821 ;
822 [label="gini = 0.0\nsamples = 2\nvalue = [0, 2]\nclass = yes", fillcolor="#399de5"] ;
812 -> 822 ;
823 [label="campaign <= 0.082\ngini = 0.448\nsamples = 204\nvalue = [69, 135]\nclass = yes", fillcolor="#9ecff2"] ;
671 -> 823 ;
824 [label="euribor3m <= 0.048\ngini = 0.436\nsamples = 199\nvalue = [64, 135]\nclass = yes", fillcolor="#97cbf1"] ;
823 -> 824 ;
825 [label="euribor3m <= 0.003\ngini = 0.366\nsamples = 116\nvalue = [28, 88]\nclass = yes", fillcolor="#78bced"] ;
824 -> 825 ;
826 [label="duration <= 0.08\ngini = 0.496\nsamples = 11\nvalue = [6, 5]\nclass = no", fillcolor="#fbeade"] ;
825 -> 826 ;
827 [label="age <= 0.333\ngini = 0.375\nsamples = 8\nvalue = [6, 2]\nclass = no", fillcolor="#eeab7b"] ;
826 -> 827 ;
828 [label="age <= 0.136\ngini = 0.5\nsamples = 4\nvalue = [2, 2]\nclass = no", fillcolor="#ffffff"] ;
827 -> 828 ;
829 [label="gini = 0.0\nsamples = 2\nvalue = [2, 0]\nclass = no", fillcolor="#e58139"] ;
828 -> 829 ;
830 [label="gini = 0.0\nsamples = 2\nvalue = [0, 2]\nclass = yes", fillcolor="#399de5"] ;
828 -> 830 ;
831 [label="gini = 0.0\nsamples = 4\nvalue = [4, 0]\nclass = no", fillcolor="#e58139"] ;
827 -> 831 ;
832 [label="gini = 0.0\nsamples = 3\nvalue = [0, 3]\nclass = yes", fillcolor="#399de5"] ;
826 -> 832 ;
833 [label="age <= 0.167\ngini = 0.331\nsamples = 105\nvalue = [22, 83]\nclass = yes", fillcolor="#6db7ec"] ;
825 -> 833 ;
834 [label="day_of_week <= 3.5\ngini = 0.466\nsamples = 27\nvalue = [10, 17]\nclass = yes", fillcolor="#add7f4"] ;
833 -> 834 ;
835 [label="job <= 7.5\ngini = 0.492\nsamples = 16\nvalue = [9, 7]\nclass = no", fillcolor="#f9e3d3"] ;
834 -> 835 ;
836 [label="age <= 0.154\ngini = 0.245\nsamples = 7\nvalue = [1, 6]\nclass = yes", fillcolor="#5aade9"] ;
835 -> 836 ;
837 [label="gini = 0.0\nsamples = 5\nvalue = [0, 5]\nclass = yes", fillcolor="#399de5"] ;
836 -> 837 ;
838 [label="duration <= 0.083\ngini = 0.5\nsamples = 2\nvalue = [1, 1]\nclass = no", fillcolor="#ffffff"] ;
836 -> 838 ;
839 [label="gini = 0.0\nsamples = 1\nvalue = [1, 0]\nclass = no", fillcolor="#e58139"] ;
838 -> 839 ;
840 [label="gini = 0.0\nsamples = 1\nvalue = [0, 1]\nclass = yes", fillcolor="#399de5"] ;
838 -> 840 ;
841 [label="age <= 0.074\ngini = 0.198\nsamples = 9\nvalue = [8, 1]\nclass = no", fillcolor="#e89152"] ;
835 -> 841 ;
842 [label="job <= 8.5\ngini = 0.444\nsamples = 3\nvalue = [2, 1]\nclass = no", fillcolor="#f2c09c"] ;
841 -> 842 ;
843 [label="gini = 0.0\nsamples = 2\nvalue = [2, 0]\nclass = no", fillcolor="#e58139"] ;
842 -> 843 ;
844 [label="gini = 0.0\nsamples = 1\nvalue = [0, 1]\nclass = yes", fillcolor="#399de5"] ;
842 -> 844 ;
845 [label="gini = 0.0\nsamples = 6\nvalue = [6, 0]\nclass = no", fillcolor="#e58139"] ;
841 -> 845 ;
846 [label="duration <= 0.065\ngini = 0.165\nsamples = 11\nvalue = [1, 10]\nclass = yes", fillcolor="#4da7e8"] ;
834 -> 846 ;
847 [label="euribor3m <= 0.027\ngini = 0.444\nsamples = 3\nvalue = [1, 2]\nclass = yes", fillcolor="#9ccef2"] ;
846 -> 847 ;
848 [label="gini = 0.0\nsamples = 2\nvalue = [0, 2]\nclass = yes", fillcolor="#399de5"] ;
847 -> 848 ;
849 [label="gini = 0.0\nsamples = 1\nvalue = [1, 0]\nclass = no", fillcolor="#e58139"] ;
847 -> 849 ;
850 [label="gini = 0.0\nsamples = 8\nvalue = [0, 8]\nclass = yes", fillcolor="#399de5"] ;
846 -> 850 ;
851 [label="duration <= 0.105\ngini = 0.26\nsamples = 78\nvalue = [12, 66]\nclass = yes", fillcolor="#5dafea"] ;
833 -> 851 ;
852 [label="age <= 0.389\ngini = 0.231\nsamples = 75\nvalue = [10, 65]\nclass = yes", fillcolor="#57ace9"] ;
851 -> 852 ;
853 [label="cons.conf.idx <= 0.805\ngini = 0.332\nsamples = 38\nvalue = [8, 30]\nclass = yes", fillcolor="#6eb7ec"] ;
852 -> 853 ;
854 [label="gini = 0.0\nsamples = 15\nvalue = [0, 15]\nclass = yes", fillcolor="#399de5"] ;
853 -> 854 ;
855 [label="euribor3m <= 0.022\ngini = 0.454\nsamples = 23\nvalue = [8, 15]\nclass = yes", fillcolor="#a3d1f3"] ;
853 -> 855 ;
856 [label="age <= 0.179\ngini = 0.469\nsamples = 8\nvalue = [5, 3]\nclass = no", fillcolor="#f5cdb0"] ;
855 -> 856 ;
857 [label="gini = 0.0\nsamples = 1\nvalue = [0, 1]\nclass = yes", fillcolor="#399de5"] ;
856 -> 857 ;
858 [label="duration <= 0.089\ngini = 0.408\nsamples = 7\nvalue = [5, 2]\nclass = no", fillcolor="#efb388"] ;
856 -> 858 ;
859 [label="age <= 0.204\ngini = 0.278\nsamples = 6\nvalue = [5, 1]\nclass = no", fillcolor="#ea9a61"] ;
858 -> 859 ;
860 [label="duration <= 0.071\ngini = 0.444\nsamples = 3\nvalue = [2, 1]\nclass = no", fillcolor="#f2c09c"] ;
859 -> 860 ;
861 [label="gini = 0.0\nsamples = 1\nvalue = [0, 1]\nclass = yes", fillcolor="#399de5"] ;
860 -> 861 ;
862 [label="gini = 0.0\nsamples = 2\nvalue = [2, 0]\nclass = no", fillcolor="#e58139"] ;
860 -> 862 ;
863 [label="gini = 0.0\nsamples = 3\nvalue = [3, 0]\nclass = no", fillcolor="#e58139"] ;
859 -> 863 ;
864 [label="gini = 0.0\nsamples = 1\nvalue = [0, 1]\nclass = yes", fillcolor="#399de5"] ;
858 -> 864 ;
865 [label="age <= 0.284\ngini = 0.32\nsamples = 15\nvalue = [3, 12]\nclass = yes", fillcolor="#6ab6ec"] ;
855 -> 865 ;
866 [label="gini = 0.0\nsamples = 9\nvalue = [0, 9]\nclass = yes", fillcolor="#399de5"] ;
865 -> 866 ;
867 [label="poutcome <= 0.5\ngini = 0.5\nsamples = 6\nvalue = [3, 3]\nclass = no", fillcolor="#ffffff"] ;
865 -> 867 ;
868 [label="gini = 0.0\nsamples = 2\nvalue = [2, 0]\nclass = no", fillcolor="#e58139"] ;
867 -> 868 ;
869 [label="age <= 0.302\ngini = 0.375\nsamples = 4\nvalue = [1, 3]\nclass = yes", fillcolor="#7bbeee"] ;
867 -> 869 ;
870 [label="gini = 0.0\nsamples = 1\nvalue = [1, 0]\nclass = no", fillcolor="#e58139"] ;
869 -> 870 ;
871 [label="gini = 0.0\nsamples = 3\nvalue = [0, 3]\nclass = yes", fillcolor="#399de5"] ;
869 -> 871 ;
872 [label="euribor3m <= 0.007\ngini = 0.102\nsamples = 37\nvalue = [2, 35]\nclass = yes", fillcolor="#44a3e6"] ;
852 -> 872 ;
873 [label="gini = 0.0\nsamples = 1\nvalue = [1, 0]\nclass = no", fillcolor="#e58139"] ;
872 -> 873 ;
874 [label="duration <= 0.066\ngini = 0.054\nsamples = 36\nvalue = [1, 35]\nclass = yes", fillcolor="#3fa0e6"] ;
872 -> 874 ;
875 [label="duration <= 0.066\ngini = 0.219\nsamples = 8\nvalue = [1, 7]\nclass = yes", fillcolor="#55abe9"] ;
874 -> 875 ;
876 [label="gini = 0.0\nsamples = 7\nvalue = [0, 7]\nclass = yes", fillcolor="#399de5"] ;
875 -> 876 ;
877 [label="gini = 0.0\nsamples = 1\nvalue = [1, 0]\nclass = no", fillcolor="#e58139"] ;
875 -> 877 ;
878 [label="gini = 0.0\nsamples = 28\nvalue = [0, 28]\nclass = yes", fillcolor="#399de5"] ;
874 -> 878 ;
879 [label="cons.conf.idx <= 0.933\ngini = 0.444\nsamples = 3\nvalue = [2, 1]\nclass = no", fillcolor="#f2c09c"] ;
851 -> 879 ;
880 [label="gini = 0.0\nsamples = 1\nvalue = [0, 1]\nclass = yes", fillcolor="#399de5"] ;
879 -> 880 ;
881 [label="gini = 0.0\nsamples = 2\nvalue = [2, 0]\nclass = no", fillcolor="#e58139"] ;
879 -> 881 ;
882 [label="cons.conf.idx <= 0.766\ngini = 0.491\nsamples = 83\nvalue = [36, 47]\nclass = yes", fillcolor="#d1e8f9"] ;
824 -> 882 ;
883 [label="campaign <= 0.045\ngini = 0.444\nsamples = 51\nvalue = [17, 34]\nclass = yes", fillcolor="#9ccef2"] ;
882 -> 883 ;
884 [label="job <= 8.5\ngini = 0.425\nsamples = 49\nvalue = [15, 34]\nclass = yes", fillcolor="#90c8f0"] ;
883 -> 884 ;
885 [label="duration <= 0.103\ngini = 0.369\nsamples = 41\nvalue = [10, 31]\nclass = yes", fillcolor="#79bded"] ;
